<?xml version="1.0"?>
<opencv_storage>
<cascade>
  <stageType>BOOST</stageType>
  <featureType>HAAR</featureType>
  <height>48</height>
  <width>48</width>
  <stageParams>
    <boostType>GAB</boostType>
    <minHitRate>9.9500000476837158e-01</minHitRate>
    <maxFalseAlarm>5.0000000000000000e-01</maxFalseAlarm>
    <weightTrimRate>9.4999999999999996e-01</weightTrimRate>
    <maxDepth>1</maxDepth>
    <maxWeakCount>100</maxWeakCount></stageParams>
  <featureParams>
    <maxCatCount>0</maxCatCount>
    <featSize>1</featSize>
    <mode>BASIC</mode></featureParams>
  <stageNum>30</stageNum>
  <stages>
    <!-- stage 0 -->
    <_>
      <maxWeakCount>5</maxWeakCount>
      <stageThreshold>-3.6685624718666077e-01</stageThreshold>
      <weakClassifiers>
        <_>
          <internalNodes>
            0 -1 63 1.1672999709844589e-02</internalNodes>
          <leafValues>
            -2.5978091359138489e-01 9.1215574741363525e-01</leafValues></_>
        <_>
          <internalNodes>
            0 -1 123 -1.3492912985384464e-03</internalNodes>
          <leafValues>
            9.4982171058654785e-01 -2.3580430448055267e-01</leafValues></_>
        <_>
          <internalNodes>
            0 -1 95 9.2029906227253377e-05</internalNodes>
          <leafValues>
            -2.5559964776039124e-01 8.8516885042190552e-01</leafValues></_>
        <_>
          <internalNodes>
            0 -1 92 1.6315074753947556e-04</internalNodes>
          <leafValues>
            -4.1019707918167114e-01 8.6540883779525757e-01</leafValues></_>
        <_>
          <internalNodes>
            0 -1 77 8.3429377991706133e-04</internalNodes>
          <leafValues>
            -3.4624281525611877e-01 9.3631488084793091e-01</leafValues></_></weakClassifiers></_>
    <!-- stage 1 -->
    <_>
      <maxWeakCount>4</maxWeakCount>
      <stageThreshold>-5.8866155147552490e-01</stageThreshold>
      <weakClassifiers>
        <_>
          <internalNodes>
            0 -1 41 -2.6186894625425339e-02</internalNodes>
          <leafValues>
            -7.4045801162719727e-01 8.2626682519912720e-01</leafValues></_>
        <_>
          <internalNodes>
            0 -1 13 4.4255885295569897e-03</internalNodes>
          <leafValues>
            -6.2031692266464233e-01 8.2474982738494873e-01</leafValues></_>
        <_>
          <internalNodes>
            0 -1 120 -2.5330083444714546e-03</internalNodes>
          <leafValues>
            9.0759158134460449e-01 -4.7085177898406982e-01</leafValues></_>
        <_>
          <internalNodes>
            0 -1 122 -6.9487867876887321e-03</internalNodes>
          <leafValues>
            9.5723557472229004e-01 -3.2375964522361755e-01</leafValues></_></weakClassifiers></_>
    <!-- stage 2 -->
    <_>
      <maxWeakCount>5</maxWeakCount>
      <stageThreshold>-3.1753793358802795e-01</stageThreshold>
      <weakClassifiers>
        <_>
          <internalNodes>
            0 -1 39 7.0820033550262451e-02</internalNodes>
          <leafValues>
            8.1162983179092407e-01 -7.4917489290237427e-01</leafValues></_>
        <_>
          <internalNodes>
            0 -1 79 -7.2709680534899235e-03</internalNodes>
          <leafValues>
            8.4551972150802612e-01 -4.5638531446456909e-01</leafValues></_>
        <_>
          <internalNodes>
            0 -1 26 1.1629137210547924e-02</internalNodes>
          <leafValues>
            5.7860523462295532e-01 -7.9786628484725952e-01</leafValues></_>
        <_>
          <internalNodes>
            0 -1 112 -8.3350075874477625e-04</internalNodes>
          <leafValues>
            6.7588168382644653e-01 -4.7902828454971313e-01</leafValues></_>
        <_>
          <internalNodes>
            0 -1 51 1.8758386373519897e-02</internalNodes>
          <leafValues>
            -3.4835615754127502e-01 7.8844535350799561e-01</leafValues></_></weakClassifiers></_>
    <!-- stage 3 -->
    <_>
      <maxWeakCount>6</maxWeakCount>
      <stageThreshold>-6.8096429109573364e-01</stageThreshold>
      <weakClassifiers>
        <_>
          <internalNodes>
            0 -1 81 -3.2997825182974339e-03</internalNodes>
          <leafValues>
            8.8834953308105469e-01 -1.0948905348777771e-01</leafValues></_>
        <_>
          <internalNodes>
            0 -1 111 3.5531411413103342e-04</internalNodes>
          <leafValues>
            -1.6685655713081360e-01 8.9678156375885010e-01</leafValues></_>
        <_>
          <internalNodes>
            0 -1 75 6.6451780498027802e-02</internalNodes>
          <leafValues>
            5.9188038110733032e-01 -5.1022821664810181e-01</leafValues></_>
        <_>
          <internalNodes>
            0 -1 128 -1.5676975250244141e-02</internalNodes>
          <leafValues>
            7.2866672277450562e-01 -3.7876304984092712e-01</leafValues></_>
        <_>
          <internalNodes>
            0 -1 46 2.2571939043700695e-03</internalNodes>
          <leafValues>
            -3.1324300169944763e-01 9.0050357580184937e-01</leafValues></_>
        <_>
          <internalNodes>
            0 -1 73 1.3748033670708537e-03</internalNodes>
          <leafValues>
            -3.0449306964874268e-01 8.2720273733139038e-01</leafValues></_></weakClassifiers></_>
    <!-- stage 4 -->
    <_>
      <maxWeakCount>3</maxWeakCount>
      <stageThreshold>-3.1418979167938232e-01</stageThreshold>
      <weakClassifiers>
        <_>
          <internalNodes>
            0 -1 2 -1.4230519533157349e-01</internalNodes>
          <leafValues>
            -6.7800456285476685e-01 8.9149308204650879e-01</leafValues></_>
        <_>
          <internalNodes>
            0 -1 100 8.6024589836597443e-03</internalNodes>
          <leafValues>
            -4.1698256134986877e-01 9.2492771148681641e-01</leafValues></_>
        <_>
          <internalNodes>
            0 -1 19 3.6565503105521202e-03</internalNodes>
          <leafValues>
            -4.4897025823593140e-01 7.8079730272293091e-01</leafValues></_></weakClassifiers></_>
    <!-- stage 5 -->
    <_>
      <maxWeakCount>5</maxWeakCount>
      <stageThreshold>1.2395620346069336e-01</stageThreshold>
      <weakClassifiers>
        <_>
          <internalNodes>
            0 -1 29 3.1685329973697662e-02</internalNodes>
          <leafValues>
            8.2952880859375000e-01 -6.3076925277709961e-01</leafValues></_>
        <_>
          <internalNodes>
            0 -1 97 3.3807396888732910e-02</internalNodes>
          <leafValues>
            -4.0343502163887024e-01 9.6072947978973389e-01</leafValues></_>
        <_>
          <internalNodes>
            0 -1 38 -4.9505084753036499e-02</internalNodes>
          <leafValues>
            -7.1726912260055542e-01 6.7747294902801514e-01</leafValues></_>
        <_>
          <internalNodes>
            0 -1 96 4.3337990064173937e-04</internalNodes>
          <leafValues>
            9.1358065605163574e-01 -4.0113788843154907e-01</leafValues></_>
        <_>
          <internalNodes>
            0 -1 101 -9.2569477856159210e-03</internalNodes>
          <leafValues>
            8.8182532787322998e-01 -4.0379917621612549e-01</leafValues></_></weakClassifiers></_>
    <!-- stage 6 -->
    <_>
      <maxWeakCount>6</maxWeakCount>
      <stageThreshold>-3.8922339677810669e-01</stageThreshold>
      <weakClassifiers>
        <_>
          <internalNodes>
            0 -1 88 6.4374798967037350e-05</internalNodes>
          <leafValues>
            8.6882340908050537e-01 -4.2067554593086243e-01</leafValues></_>
        <_>
          <internalNodes>
            0 -1 33 6.9712787866592407e-02</internalNodes>
          <leafValues>
            5.9294605255126953e-01 -8.3241647481918335e-01</leafValues></_>
        <_>
          <internalNodes>
            0 -1 60 4.6054616570472717e-02</internalNodes>
          <leafValues>
            -3.7325239181518555e-01 7.8312486410140991e-01</leafValues></_>
        <_>
          <internalNodes>
            0 -1 22 3.9179967716336250e-03</internalNodes>
          <leafValues>
            5.4002964496612549e-01 -4.7123521566390991e-01</leafValues></_>
        <_>
          <internalNodes>
            0 -1 105 -1.0823847260326147e-03</internalNodes>
          <leafValues>
            6.9433975219726562e-01 -3.7157732248306274e-01</leafValues></_>
        <_>
          <internalNodes>
            0 -1 65 1.7565130256116390e-03</internalNodes>
          <leafValues>
            -3.5669383406639099e-01 8.0612742900848389e-01</leafValues></_></weakClassifiers></_>
    <!-- stage 7 -->
    <_>
      <maxWeakCount>3</maxWeakCount>
      <stageThreshold>-1.3411185145378113e-01</stageThreshold>
      <weakClassifiers>
        <_>
          <internalNodes>
            0 -1 99 4.1790241375565529e-03</internalNodes>
          <leafValues>
            -2.8215768933296204e-01 9.6884274482727051e-01</leafValues></_>
        <_>
          <internalNodes>
            0 -1 66 -8.0853728577494621e-03</internalNodes>
          <leafValues>
            -6.7118275165557861e-01 7.4982804059982300e-01</leafValues></_>
        <_>
          <internalNodes>
            0 -1 106 -4.9173035658895969e-03</internalNodes>
          <leafValues>
            8.1922858953475952e-01 -4.0942990779876709e-01</leafValues></_></weakClassifiers></_>
    <!-- stage 8 -->
    <_>
      <maxWeakCount>3</maxWeakCount>
      <stageThreshold>-1.8268929421901703e-01</stageThreshold>
      <weakClassifiers>
        <_>
          <internalNodes>
            0 -1 64 1.8155749887228012e-02</internalNodes>
          <leafValues>
            9.0756863355636597e-01 -5.4896140098571777e-01</leafValues></_>
        <_>
          <internalNodes>
            0 -1 104 -5.8826194144785404e-03</internalNodes>
          <leafValues>
            8.0043768882751465e-01 -4.4181290268898010e-01</leafValues></_>
        <_>
          <internalNodes>
            0 -1 14 4.2551439255475998e-03</internalNodes>
          <leafValues>
            -4.3416556715965271e-01 8.3059954643249512e-01</leafValues></_></weakClassifiers></_>
    <!-- stage 9 -->
    <_>
      <maxWeakCount>6</maxWeakCount>
      <stageThreshold>-5.0989505834877491e-03</stageThreshold>
      <weakClassifiers>
        <_>
          <internalNodes>
            0 -1 94 -4.1847946122288704e-03</internalNodes>
          <leafValues>
            9.6861922740936279e-01 -1.1644657701253891e-01</leafValues></_>
        <_>
          <internalNodes>
            0 -1 54 -1.6577025875449181e-02</internalNodes>
          <leafValues>
            -9.3570816516876221e-01 6.0347032546997070e-01</leafValues></_>
        <_>
          <internalNodes>
            0 -1 87 1.2075493577867746e-03</internalNodes>
          <leafValues>
            -4.3052625656127930e-01 8.3156567811965942e-01</leafValues></_>
        <_>
          <internalNodes>
            0 -1 32 1.2898748740553856e-02</internalNodes>
          <leafValues>
            -3.9699444174766541e-01 7.2769391536712646e-01</leafValues></_>
        <_>
          <internalNodes>
            0 -1 93 -2.8327212203294039e-04</internalNodes>
          <leafValues>
            7.5523060560226440e-01 -3.6710387468338013e-01</leafValues></_>
        <_>
          <internalNodes>
            0 -1 139 1.3669140753336251e-04</internalNodes>
          <leafValues>
            -3.8256397843360901e-01 7.6195740699768066e-01</leafValues></_></weakClassifiers></_>
    <!-- stage 10 -->
    <_>
      <maxWeakCount>7</maxWeakCount>
      <stageThreshold>-7.8607171773910522e-02</stageThreshold>
      <weakClassifiers>
        <_>
          <internalNodes>
            0 -1 59 1.5853833407163620e-02</internalNodes>
          <leafValues>
            8.3018457889556885e-01 -3.5367232561111450e-01</leafValues></_>
        <_>
          <internalNodes>
            0 -1 89 -4.1422750800848007e-03</internalNodes>
          <leafValues>
            7.2780418395996094e-01 -4.9418497085571289e-01</leafValues></_>
        <_>
          <internalNodes>
            0 -1 71 -1.1224389163544402e-04</internalNodes>
          <leafValues>
            7.7938377857208252e-01 -3.5366633534431458e-01</leafValues></_>
        <_>
          <internalNodes>
            0 -1 36 3.0464050360023975e-03</internalNodes>
          <leafValues>
            -2.9190659523010254e-01 8.7143117189407349e-01</leafValues></_>
        <_>
          <internalNodes>
            0 -1 56 2.5787767954170704e-03</internalNodes>
          <leafValues>
            -2.4569350481033325e-01 8.7070155143737793e-01</leafValues></_>
        <_>
          <internalNodes>
            0 -1 136 2.0202106679789722e-04</internalNodes>
          <leafValues>
            -2.5868171453475952e-01 7.4819350242614746e-01</leafValues></_>
        <_>
          <internalNodes>
            0 -1 37 5.9940761275356635e-05</internalNodes>
          <leafValues>
            8.5151177644729614e-01 -2.7153384685516357e-01</leafValues></_></weakClassifiers></_>
    <!-- stage 11 -->
    <_>
      <maxWeakCount>5</maxWeakCount>
      <stageThreshold>8.4835983812808990e-02</stageThreshold>
      <weakClassifiers>
        <_>
          <internalNodes>
            0 -1 12 -5.4495986551046371e-02</internalNodes>
          <leafValues>
            -8.3706718683242798e-01 7.8435689210891724e-01</leafValues></_>
        <_>
          <internalNodes>
            0 -1 35 4.2340956628322601e-02</internalNodes>
          <leafValues>
            6.2160497903823853e-01 -6.5263432264328003e-01</leafValues></_>
        <_>
          <internalNodes>
            0 -1 83 -1.0669911280274391e-03</internalNodes>
          <leafValues>
            9.0475547313690186e-01 -3.1198826432228088e-01</leafValues></_>
        <_>
          <internalNodes>
            0 -1 90 2.1495865657925606e-03</internalNodes>
          <leafValues>
            6.2568354606628418e-01 -4.4946739077568054e-01</leafValues></_>
        <_>
          <internalNodes>
            0 -1 15 1.1562734842300415e-02</internalNodes>
          <leafValues>
            -3.6058184504508972e-01 8.9440363645553589e-01</leafValues></_></weakClassifiers></_>
    <!-- stage 12 -->
    <_>
      <maxWeakCount>7</maxWeakCount>
      <stageThreshold>-6.1344099044799805e-01</stageThreshold>
      <weakClassifiers>
        <_>
          <internalNodes>
            0 -1 129 2.7531650848686695e-03</internalNodes>
          <leafValues>
            7.6410257816314697e-01 -8.6666667461395264e-01</leafValues></_>
        <_>
          <internalNodes>
            0 -1 76 -5.1262732595205307e-03</internalNodes>
          <leafValues>
            8.7568819522857666e-01 -2.2340662777423859e-01</leafValues></_>
        <_>
          <internalNodes>
            0 -1 80 2.6119486428797245e-03</internalNodes>
          <leafValues>
            -3.7459981441497803e-01 8.1326192617416382e-01</leafValues></_>
        <_>
          <internalNodes>
            0 -1 16 -4.4099897146224976e-02</internalNodes>
          <leafValues>
            -4.6152794361114502e-01 5.3455609083175659e-01</leafValues></_>
        <_>
          <internalNodes>
            0 -1 0 1.9624399021267891e-02</internalNodes>
          <leafValues>
            4.0833857655525208e-01 -6.1934840679168701e-01</leafValues></_>
        <_>
          <internalNodes>
            0 -1 47 1.8183286301791668e-03</internalNodes>
          <leafValues>
            -3.9333805441856384e-01 7.3702383041381836e-01</leafValues></_>
        <_>
          <internalNodes>
            0 -1 43 1.7736826557666063e-03</internalNodes>
          <leafValues>
            -3.3300969004631042e-01 8.0591559410095215e-01</leafValues></_></weakClassifiers></_>
    <!-- stage 13 -->
    <_>
      <maxWeakCount>2</maxWeakCount>
      <stageThreshold>-8.0623507499694824e-02</stageThreshold>
      <weakClassifiers>
        <_>
          <internalNodes>
            0 -1 138 5.4618204012513161e-03</internalNodes>
          <leafValues>
            8.5524678230285645e-01 -9.1916167736053467e-01</leafValues></_>
        <_>
          <internalNodes>
            0 -1 74 -2.2610356099903584e-03</internalNodes>
          <leafValues>
            8.3853816986083984e-01 -4.1314992308616638e-01</leafValues></_></weakClassifiers></_>
    <!-- stage 14 -->
    <_>
      <maxWeakCount>2</maxWeakCount>
      <stageThreshold>-8.2750871777534485e-02</stageThreshold>
      <weakClassifiers>
        <_>
          <internalNodes>
            0 -1 34 -2.3889448493719101e-02</internalNodes>
          <leafValues>
            -7.9894179105758667e-01 8.6903250217437744e-01</leafValues></_>
        <_>
          <internalNodes>
            0 -1 142 2.4482683511450887e-04</internalNodes>
          <leafValues>
            7.1619093418121338e-01 -3.8917493820190430e-01</leafValues></_></weakClassifiers></_>
    <!-- stage 15 -->
    <_>
      <maxWeakCount>2</maxWeakCount>
      <stageThreshold>-1.3112513720989227e-01</stageThreshold>
      <weakClassifiers>
        <_>
          <internalNodes>
            0 -1 25 -3.5709265619516373e-02</internalNodes>
          <leafValues>
            -8.9033186435699463e-01 8.6032938957214355e-01</leafValues></_>
        <_>
          <internalNodes>
            0 -1 11 -1.1528598144650459e-02</internalNodes>
          <leafValues>
            -5.6277716159820557e-01 7.5920677185058594e-01</leafValues></_></weakClassifiers></_>
    <!-- stage 16 -->
    <_>
      <maxWeakCount>4</maxWeakCount>
      <stageThreshold>-7.1379297971725464e-01</stageThreshold>
      <weakClassifiers>
        <_>
          <internalNodes>
            0 -1 49 1.0595297440886497e-02</internalNodes>
          <leafValues>
            8.0558425188064575e-01 -5.8778625726699829e-01</leafValues></_>
        <_>
          <internalNodes>
            0 -1 118 -5.9532551094889641e-03</internalNodes>
          <leafValues>
            8.4441822767257690e-01 -3.2484379410743713e-01</leafValues></_>
        <_>
          <internalNodes>
            0 -1 140 8.1237696576863527e-05</internalNodes>
          <leafValues>
            5.7887947559356689e-01 -5.6157773733139038e-01</leafValues></_>
        <_>
          <internalNodes>
            0 -1 23 4.1534611955285072e-03</internalNodes>
          <leafValues>
            -4.0884721279144287e-01 7.8101849555969238e-01</leafValues></_></weakClassifiers></_>
    <!-- stage 17 -->
    <_>
      <maxWeakCount>4</maxWeakCount>
      <stageThreshold>-4.2948776483535767e-01</stageThreshold>
      <weakClassifiers>
        <_>
          <internalNodes>
            0 -1 6 5.0847049802541733e-02</internalNodes>
          <leafValues>
            9.0049749612808228e-01 -2.2931441664695740e-01</leafValues></_>
        <_>
          <internalNodes>
            0 -1 57 -4.6059628948569298e-03</internalNodes>
          <leafValues>
            7.6740604639053345e-01 -3.5937431454658508e-01</leafValues></_>
        <_>
          <internalNodes>
            0 -1 10 -1.3848408125340939e-02</internalNodes>
          <leafValues>
            -4.9039590358734131e-01 6.4817935228347778e-01</leafValues></_>
        <_>
          <internalNodes>
            0 -1 137 -6.3206809572875500e-03</internalNodes>
          <leafValues>
            6.5650856494903564e-01 -4.7718352079391479e-01</leafValues></_></weakClassifiers></_>
    <!-- stage 18 -->
    <_>
      <maxWeakCount>3</maxWeakCount>
      <stageThreshold>3.4444067627191544e-02</stageThreshold>
      <weakClassifiers>
        <_>
          <internalNodes>
            0 -1 133 -2.1082949824631214e-03</internalNodes>
          <leafValues>
            -4.4719099998474121e-01 8.4956520795822144e-01</leafValues></_>
        <_>
          <internalNodes>
            0 -1 28 -3.4510973840951920e-02</internalNodes>
          <leafValues>
            8.6368680000305176e-01 -2.9431787133216858e-01</leafValues></_>
        <_>
          <internalNodes>
            0 -1 9 9.7130760550498962e-03</internalNodes>
          <leafValues>
            7.9615390300750732e-01 -3.8205170631408691e-01</leafValues></_></weakClassifiers></_>
    <!-- stage 19 -->
    <_>
      <maxWeakCount>5</maxWeakCount>
      <stageThreshold>-3.0859377980232239e-01</stageThreshold>
      <weakClassifiers>
        <_>
          <internalNodes>
            0 -1 117 -1.8782228231430054e-02</internalNodes>
          <leafValues>
            -8.4031933546066284e-01 7.8793346881866455e-01</leafValues></_>
        <_>
          <internalNodes>
            0 -1 17 2.0584173500537872e-02</internalNodes>
          <leafValues>
            6.7166531085968018e-01 -5.8158445358276367e-01</leafValues></_>
        <_>
          <internalNodes>
            0 -1 40 -2.4306904524564743e-03</internalNodes>
          <leafValues>
            8.3213770389556885e-01 -3.5450565814971924e-01</leafValues></_>
        <_>
          <internalNodes>
            0 -1 4 2.1894974634051323e-03</internalNodes>
          <leafValues>
            4.9317631125450134e-01 -5.3423589468002319e-01</leafValues></_>
        <_>
          <internalNodes>
            0 -1 131 3.6360666854307055e-04</internalNodes>
          <leafValues>
            -2.7861034870147705e-01 9.5529496669769287e-01</leafValues></_></weakClassifiers></_>
    <!-- stage 20 -->
    <_>
      <maxWeakCount>4</maxWeakCount>
      <stageThreshold>-2.6452946662902832e-01</stageThreshold>
      <weakClassifiers>
        <_>
          <internalNodes>
            0 -1 108 -7.5142085552215576e-02</internalNodes>
          <leafValues>
            -5.2492046356201172e-01 8.8080054521560669e-01</leafValues></_>
        <_>
          <internalNodes>
            0 -1 8 -2.3761563934385777e-03</internalNodes>
          <leafValues>
            -4.3333253264427185e-01 7.6327270269393921e-01</leafValues></_>
        <_>
          <internalNodes>
            0 -1 91 4.4058859348297119e-02</internalNodes>
          <leafValues>
            -2.2257733345031738e-01 8.8632541894912720e-01</leafValues></_>
        <_>
          <internalNodes>
            0 -1 115 -9.3315541744232178e-04</internalNodes>
          <leafValues>
            9.4900429248809814e-01 -1.9260188937187195e-01</leafValues></_></weakClassifiers></_>
    <!-- stage 21 -->
    <_>
      <maxWeakCount>5</maxWeakCount>
      <stageThreshold>-7.5717520713806152e-01</stageThreshold>
      <weakClassifiers>
        <_>
          <internalNodes>
            0 -1 58 2.0777713507413864e-03</internalNodes>
          <leafValues>
            8.8919413089752197e-01 -3.3333334326744080e-01</leafValues></_>
        <_>
          <internalNodes>
            0 -1 1 6.2367459759116173e-03</internalNodes>
          <leafValues>
            7.6842719316482544e-01 -4.8225110769271851e-01</leafValues></_>
        <_>
          <internalNodes>
            0 -1 135 -2.1101473830640316e-03</internalNodes>
          <leafValues>
            6.9862920045852661e-01 -5.1637375354766846e-01</leafValues></_>
        <_>
          <internalNodes>
            0 -1 119 -7.7563384547829628e-04</internalNodes>
          <leafValues>
            8.8031274080276489e-01 -3.2024544477462769e-01</leafValues></_>
        <_>
          <internalNodes>
            0 -1 86 4.8648742958903313e-03</internalNodes>
          <leafValues>
            -3.2749906182289124e-01 8.0762743949890137e-01</leafValues></_></weakClassifiers></_>
    <!-- stage 22 -->
    <_>
      <maxWeakCount>3</maxWeakCount>
      <stageThreshold>-3.4193918108940125e-01</stageThreshold>
      <weakClassifiers>
        <_>
          <internalNodes>
            0 -1 144 1.3375577982515097e-03</internalNodes>
          <leafValues>
            8.7417918443679810e-01 -8.0234068632125854e-01</leafValues></_>
        <_>
          <internalNodes>
            0 -1 48 5.3664392908103764e-05</internalNodes>
          <leafValues>
            8.9207845926284790e-01 -2.3398873209953308e-01</leafValues></_>
        <_>
          <internalNodes>
            0 -1 134 -6.5119424834847450e-04</internalNodes>
          <leafValues>
            6.9439023733139038e-01 -4.9485996365547180e-01</leafValues></_></weakClassifiers></_>
    <!-- stage 23 -->
    <_>
      <maxWeakCount>9</maxWeakCount>
      <stageThreshold>-3.6364337801933289e-01</stageThreshold>
      <weakClassifiers>
        <_>
          <internalNodes>
            0 -1 98 1.0432068258523941e-02</internalNodes>
          <leafValues>
            -1.4977578818798065e-01 8.4045714139938354e-01</leafValues></_>
        <_>
          <internalNodes>
            0 -1 69 -1.8832627683877945e-03</internalNodes>
          <leafValues>
            8.1889539957046509e-01 -1.8088440597057343e-01</leafValues></_>
        <_>
          <internalNodes>
            0 -1 72 4.3585550040006638e-02</internalNodes>
          <leafValues>
            -2.2875194251537323e-01 8.6793762445449829e-01</leafValues></_>
        <_>
          <internalNodes>
            0 -1 116 -5.0912937149405479e-04</internalNodes>
          <leafValues>
            6.7365926504135132e-01 -3.0773445963859558e-01</leafValues></_>
        <_>
          <internalNodes>
            0 -1 20 1.1565538588911295e-03</internalNodes>
          <leafValues>
            -3.2601621747016907e-01 7.1317750215530396e-01</leafValues></_>
        <_>
          <internalNodes>
            0 -1 130 2.9110538889653981e-04</internalNodes>
          <leafValues>
            -2.4863402545452118e-01 7.4098598957061768e-01</leafValues></_>
        <_>
          <internalNodes>
            0 -1 42 -3.2168768811970949e-03</internalNodes>
          <leafValues>
            8.9708632230758667e-01 -1.8672877550125122e-01</leafValues></_>
        <_>
          <internalNodes>
            0 -1 30 4.2309528216719627e-03</internalNodes>
          <leafValues>
            5.9152567386627197e-01 -3.5780164599418640e-01</leafValues></_>
        <_>
          <internalNodes>
            0 -1 78 2.9052415629848838e-04</internalNodes>
          <leafValues>
            -3.0803713202476501e-01 6.5851002931594849e-01</leafValues></_></weakClassifiers></_>
    <!-- stage 24 -->
    <_>
      <maxWeakCount>5</maxWeakCount>
      <stageThreshold>-2.8231287002563477e-01</stageThreshold>
      <weakClassifiers>
        <_>
          <internalNodes>
            0 -1 107 -5.8079725131392479e-03</internalNodes>
          <leafValues>
            8.9139074087142944e-01 8.4548108279705048e-02</leafValues></_>
        <_>
          <internalNodes>
            0 -1 44 -4.2112739756703377e-03</internalNodes>
          <leafValues>
            8.3142030239105225e-01 -1.9422498345375061e-01</leafValues></_>
        <_>
          <internalNodes>
            0 -1 114 -8.0662558320909739e-04</internalNodes>
          <leafValues>
            7.5725507736206055e-01 -3.2670998573303223e-01</leafValues></_>
        <_>
          <internalNodes>
            0 -1 61 2.4769355077296495e-03</internalNodes>
          <leafValues>
            -3.2344403862953186e-01 8.2043957710266113e-01</leafValues></_>
        <_>
          <internalNodes>
            0 -1 52 1.5224356320686638e-04</internalNodes>
          <leafValues>
            -3.2932460308074951e-01 6.6655701398849487e-01</leafValues></_></weakClassifiers></_>
    <!-- stage 25 -->
    <_>
      <maxWeakCount>4</maxWeakCount>
      <stageThreshold>-5.2129948139190674e-01</stageThreshold>
      <weakClassifiers>
        <_>
          <internalNodes>
            0 -1 67 -1.5659432858228683e-02</internalNodes>
          <leafValues>
            -5.5878466367721558e-01 8.3097398281097412e-01</leafValues></_>
        <_>
          <internalNodes>
            0 -1 109 1.4388824347406626e-03</internalNodes>
          <leafValues>
            -5.1405858993530273e-01 7.6444953680038452e-01</leafValues></_>
        <_>
          <internalNodes>
            0 -1 18 1.6796976327896118e-02</internalNodes>
          <leafValues>
            -3.9730814099311829e-01 8.1280547380447388e-01</leafValues></_>
        <_>
          <internalNodes>
            0 -1 84 2.3997230455279350e-03</internalNodes>
          <leafValues>
            -3.2965615391731262e-01 8.7846231460571289e-01</leafValues></_></weakClassifiers></_>
    <!-- stage 26 -->
    <_>
      <maxWeakCount>7</maxWeakCount>
      <stageThreshold>-3.2818830013275146e-01</stageThreshold>
      <weakClassifiers>
        <_>
          <internalNodes>
            0 -1 62 8.7454125285148621e-02</internalNodes>
          <leafValues>
            7.9526263475418091e-01 -5.5275589227676392e-01</leafValues></_>
        <_>
          <internalNodes>
            0 -1 141 -1.5962935285642743e-03</internalNodes>
          <leafValues>
            8.4677672386169434e-01 -3.1849828362464905e-01</leafValues></_>
        <_>
          <internalNodes>
            0 -1 24 6.5665380097925663e-03</internalNodes>
          <leafValues>
            -4.1567689180374146e-01 7.3394465446472168e-01</leafValues></_>
        <_>
          <internalNodes>
            0 -1 127 1.2548655271530151e-02</internalNodes>
          <leafValues>
            -4.3684086203575134e-01 7.2124916315078735e-01</leafValues></_>
        <_>
          <internalNodes>
            0 -1 53 -3.3947059419006109e-03</internalNodes>
          <leafValues>
            7.6468533277511597e-01 -3.7033906579017639e-01</leafValues></_>
        <_>
          <internalNodes>
            0 -1 125 -5.6749023497104645e-04</internalNodes>
          <leafValues>
            7.9294931888580322e-01 -2.9966351389884949e-01</leafValues></_>
        <_>
          <internalNodes>
            0 -1 27 -4.1357669979333878e-03</internalNodes>
          <leafValues>
            8.2745975255966187e-01 -2.1905970573425293e-01</leafValues></_></weakClassifiers></_>
    <!-- stage 27 -->
    <_>
      <maxWeakCount>4</maxWeakCount>
      <stageThreshold>-3.3167377114295959e-01</stageThreshold>
      <weakClassifiers>
        <_>
          <internalNodes>
            0 -1 45 -1.5200591646134853e-02</internalNodes>
          <leafValues>
            -4.3979057669639587e-01 9.2403316497802734e-01</leafValues></_>
        <_>
          <internalNodes>
            0 -1 102 5.0446094246581197e-04</internalNodes>
          <leafValues>
            -1.5217058360576630e-01 8.3977442979812622e-01</leafValues></_>
        <_>
          <internalNodes>
            0 -1 143 -9.2943833442404866e-04</internalNodes>
          <leafValues>
            7.4462640285491943e-01 -2.9539024829864502e-01</leafValues></_>
        <_>
          <internalNodes>
            0 -1 7 -3.3629247918725014e-03</internalNodes>
          <leafValues>
            5.9442067146301270e-01 -4.3626740574836731e-01</leafValues></_></weakClassifiers></_>
    <!-- stage 28 -->
    <_>
      <maxWeakCount>7</maxWeakCount>
      <stageThreshold>-1.3720174133777618e-01</stageThreshold>
      <weakClassifiers>
        <_>
          <internalNodes>
            0 -1 85 -1.6137194633483887e-01</internalNodes>
          <leafValues>
            -7.5365346670150757e-01 7.7250051498413086e-01</leafValues></_>
        <_>
          <internalNodes>
            0 -1 55 3.9235040545463562e-02</internalNodes>
          <leafValues>
            -3.6199209094047546e-01 7.7044749259948730e-01</leafValues></_>
        <_>
          <internalNodes>
            0 -1 124 -4.1664661839604378e-03</internalNodes>
          <leafValues>
            7.8468346595764160e-01 -2.6081973314285278e-01</leafValues></_>
        <_>
          <internalNodes>
            0 -1 50 9.8869986832141876e-03</internalNodes>
          <leafValues>
            -2.5718891620635986e-01 8.7731766700744629e-01</leafValues></_>
        <_>
          <internalNodes>
            0 -1 5 7.1780490688979626e-03</internalNodes>
          <leafValues>
            -3.0125904083251953e-01 7.6168584823608398e-01</leafValues></_>
        <_>
          <internalNodes>
            0 -1 82 -2.3853145539760590e-03</internalNodes>
          <leafValues>
            7.8719460964202881e-01 -2.7951458096504211e-01</leafValues></_>
        <_>
          <internalNodes>
            0 -1 31 2.0980110391974449e-02</internalNodes>
          <leafValues>
            -1.8972012400627136e-01 9.4406956434249878e-01</leafValues></_></weakClassifiers></_>
    <!-- stage 29 -->
    <_>
      <maxWeakCount>10</maxWeakCount>
      <stageThreshold>-7.0764315128326416e-01</stageThreshold>
      <weakClassifiers>
        <_>
          <internalNodes>
            0 -1 70 -7.3170312680304050e-04</internalNodes>
          <leafValues>
            -6.4516127109527588e-01 7.3270809650421143e-01</leafValues></_>
        <_>
          <internalNodes>
            0 -1 3 6.3346186652779579e-03</internalNodes>
          <leafValues>
            -1.9346871972084045e-01 7.7103990316390991e-01</leafValues></_>
        <_>
          <internalNodes>
            0 -1 132 2.9666207265108824e-03</internalNodes>
          <leafValues>
            -2.3147073388099670e-01 8.7107521295547485e-01</leafValues></_>
        <_>
          <internalNodes>
            0 -1 110 1.6030906699597836e-03</internalNodes>
          <leafValues>
            -2.7081665396690369e-01 6.6685569286346436e-01</leafValues></_>
        <_>
          <internalNodes>
            0 -1 103 2.8177783824503422e-03</internalNodes>
          <leafValues>
            -2.9700726270675659e-01 6.6999995708465576e-01</leafValues></_>
        <_>
          <internalNodes>
            0 -1 21 1.4414481818675995e-02</internalNodes>
          <leafValues>
            3.5951653122901917e-01 -5.2347397804260254e-01</leafValues></_>
        <_>
          <internalNodes>
            0 -1 68 1.7298622988164425e-03</internalNodes>
          <leafValues>
            -2.6996225118637085e-01 6.9328647851943970e-01</leafValues></_>
        <_>
          <internalNodes>
            0 -1 121 4.9747033044695854e-03</internalNodes>
          <leafValues>
            -1.6723918914794922e-01 9.2402625083923340e-01</leafValues></_>
        <_>
          <internalNodes>
            0 -1 113 -5.4285861551761627e-03</internalNodes>
          <leafValues>
            7.1023851633071899e-01 -2.9054766893386841e-01</leafValues></_>
        <_>
          <internalNodes>
            0 -1 126 4.3308502063155174e-04</internalNodes>
          <leafValues>
            -1.9715093076229095e-01 7.5838416814804077e-01</leafValues></_></weakClassifiers></_></stages>
  <features>
    <_>
      <rects>
        <_>
          0 14 7 26 -1.</_>
        <_>
          0 27 7 13 2.</_></rects>
      <tilted>0</tilted></_>
    <_>
      <rects>
        <_>
          0 15 5 12 -1.</_>
        <_>
          0 21 5 6 2.</_></rects>
      <tilted>0</tilted></_>
    <_>
      <rects>
        <_>
          0 20 39 24 -1.</_>
        <_>
          0 32 39 12 2.</_></rects>
      <tilted>0</tilted></_>
    <_>
      <rects>
        <_>
          0 22 24 6 -1.</_>
        <_>
          0 22 12 3 2.</_>
        <_>
          12 25 12 3 2.</_></rects>
      <tilted>0</tilted></_>
    <_>
      <rects>
        <_>
          0 25 2 18 -1.</_>
        <_>
          0 31 2 6 3.</_></rects>
      <tilted>0</tilted></_>
    <_>
      <rects>
        <_>
          0 29 22 9 -1.</_>
        <_>
          0 32 22 3 3.</_></rects>
      <tilted>0</tilted></_>
    <_>
      <rects>
        <_>
          1 0 7 40 -1.</_>
        <_>
          1 20 7 20 2.</_></rects>
      <tilted>0</tilted></_>
    <_>
      <rects>
        <_>
          1 23 15 24 -1.</_>
        <_>
          6 23 5 24 3.</_></rects>
      <tilted>0</tilted></_>
    <_>
      <rects>
        <_>
          2 5 18 34 -1.</_>
        <_>
          2 5 9 17 2.</_>
        <_>
          11 22 9 17 2.</_></rects>
      <tilted>0</tilted></_>
    <_>
      <rects>
        <_>
          2 9 7 24 -1.</_>
        <_>
          2 21 7 12 2.</_></rects>
      <tilted>0</tilted></_>
    <_>
      <rects>
        <_>
          2 23 24 9 -1.</_>
        <_>
          10 23 8 9 3.</_></rects>
      <tilted>0</tilted></_>
    <_>
      <rects>
        <_>
          2 24 30 9 -1.</_>
        <_>
          12 24 10 9 3.</_></rects>
      <tilted>0</tilted></_>
    <_>
      <rects>
        <_>
          2 34 42 6 -1.</_>
        <_>
          23 34 21 6 2.</_></rects>
      <tilted>0</tilted></_>
    <_>
      <rects>
        <_>
          2 35 45 6 -1.</_>
        <_>
          17 35 15 6 3.</_></rects>
      <tilted>0</tilted></_>
    <_>
      <rects>
        <_>
          3 28 12 8 -1.</_>
        <_>
          9 28 6 8 2.</_></rects>
      <tilted>0</tilted></_>
    <_>
      <rects>
        <_>
          3 29 22 9 -1.</_>
        <_>
          3 32 22 3 3.</_></rects>
      <tilted>0</tilted></_>
    <_>
      <rects>
        <_>
          4 0 42 28 -1.</_>
        <_>
          4 0 21 14 2.</_>
        <_>
          25 14 21 14 2.</_></rects>
      <tilted>0</tilted></_>
    <_>
      <rects>
        <_>
          4 5 6 26 -1.</_>
        <_>
          4 18 6 13 2.</_></rects>
      <tilted>0</tilted></_>
    <_>
      <rects>
        <_>
          5 27 21 10 -1.</_>
        <_>
          12 27 7 10 3.</_></rects>
      <tilted>0</tilted></_>
    <_>
      <rects>
        <_>
          5 29 14 15 -1.</_>
        <_>
          12 29 7 15 2.</_></rects>
      <tilted>0</tilted></_>
    <_>
      <rects>
        <_>
          6 0 12 10 -1.</_>
        <_>
          6 0 6 5 2.</_>
        <_>
          12 5 6 5 2.</_></rects>
      <tilted>0</tilted></_>
    <_>
      <rects>
        <_>
          6 10 4 30 -1.</_>
        <_>
          6 25 4 15 2.</_></rects>
      <tilted>0</tilted></_>
    <_>
      <rects>
        <_>
          6 12 4 18 -1.</_>
        <_>
          6 21 4 9 2.</_></rects>
      <tilted>0</tilted></_>
    <_>
      <rects>
        <_>
          6 18 12 12 -1.</_>
        <_>
          6 18 6 6 2.</_>
        <_>
          12 24 6 6 2.</_></rects>
      <tilted>0</tilted></_>
    <_>
      <rects>
        <_>
          6 28 18 9 -1.</_>
        <_>
          12 28 6 9 3.</_></rects>
      <tilted>0</tilted></_>
    <_>
      <rects>
        <_>
          6 36 42 5 -1.</_>
        <_>
          20 36 14 5 3.</_></rects>
      <tilted>0</tilted></_>
    <_>
      <rects>
        <_>
          7 0 1 42 -1.</_>
        <_>
          7 21 1 21 2.</_></rects>
      <tilted>0</tilted></_>
    <_>
      <rects>
        <_>
          7 21 12 12 -1.</_>
        <_>
          7 25 12 4 3.</_></rects>
      <tilted>0</tilted></_>
    <_>
      <rects>
        <_>
          7 38 41 10 -1.</_>
        <_>
          7 43 41 5 2.</_></rects>
      <tilted>0</tilted></_>
    <_>
      <rects>
        <_>
          8 23 10 22 -1.</_>
        <_>
          8 34 10 11 2.</_></rects>
      <tilted>0</tilted></_>
    <_>
      <rects>
        <_>
          8 29 33 5 -1.</_>
        <_>
          19 29 11 5 3.</_></rects>
      <tilted>0</tilted></_>
    <_>
      <rects>
        <_>
          8 35 36 9 -1.</_>
        <_>
          8 38 36 3 3.</_></rects>
      <tilted>0</tilted></_>
    <_>
      <rects>
        <_>
          9 18 8 30 -1.</_>
        <_>
          9 28 8 10 3.</_></rects>
      <tilted>0</tilted></_>
    <_>
      <rects>
        <_>
          9 30 36 11 -1.</_>
        <_>
          27 30 18 11 2.</_></rects>
      <tilted>0</tilted></_>
    <_>
      <rects>
        <_>
          9 34 21 7 -1.</_>
        <_>
          16 34 7 7 3.</_></rects>
      <tilted>0</tilted></_>
    <_>
      <rects>
        <_>
          10 28 36 14 -1.</_>
        <_>
          28 28 18 14 2.</_></rects>
      <tilted>0</tilted></_>
    <_>
      <rects>
        <_>
          10 30 13 6 -1.</_>
        <_>
          10 32 13 2 3.</_></rects>
      <tilted>0</tilted></_>
    <_>
      <rects>
        <_>
          11 2 25 2 -1.</_>
        <_>
          11 3 25 1 2.</_></rects>
      <tilted>0</tilted></_>
    <_>
      <rects>
        <_>
          11 20 17 24 -1.</_>
        <_>
          11 32 17 12 2.</_></rects>
      <tilted>0</tilted></_>
    <_>
      <rects>
        <_>
          11 27 34 13 -1.</_>
        <_>
          28 27 17 13 2.</_></rects>
      <tilted>0</tilted></_>
    <_>
      <rects>
        <_>
          11 30 27 5 -1.</_>
        <_>
          20 30 9 5 3.</_></rects>
      <tilted>0</tilted></_>
    <_>
      <rects>
        <_>
          12 32 24 8 -1.</_>
        <_>
          24 32 12 8 2.</_></rects>
      <tilted>0</tilted></_>
    <_>
      <rects>
        <_>
          13 34 8 9 -1.</_>
        <_>
          13 37 8 3 3.</_></rects>
      <tilted>0</tilted></_>
    <_>
      <rects>
        <_>
          14 26 7 6 -1.</_>
        <_>
          14 28 7 2 3.</_></rects>
      <tilted>0</tilted></_>
    <_>
      <rects>
        <_>
          15 16 12 12 -1.</_>
        <_>
          15 20 12 4 3.</_></rects>
      <tilted>0</tilted></_>
    <_>
      <rects>
        <_>
          15 21 17 20 -1.</_>
        <_>
          15 31 17 10 2.</_></rects>
      <tilted>0</tilted></_>
    <_>
      <rects>
        <_>
          15 26 7 6 -1.</_>
        <_>
          15 28 7 2 3.</_></rects>
      <tilted>0</tilted></_>
    <_>
      <rects>
        <_>
          15 31 7 6 -1.</_>
        <_>
          15 33 7 2 3.</_></rects>
      <tilted>0</tilted></_>
    <_>
      <rects>
        <_>
          15 32 4 2 -1.</_>
        <_>
          17 32 2 2 2.</_></rects>
      <tilted>0</tilted></_>
    <_>
      <rects>
        <_>
          16 20 9 11 -1.</_>
        <_>
          19 20 3 11 3.</_></rects>
      <tilted>0</tilted></_>
    <_>
      <rects>
        <_>
          16 23 8 12 -1.</_>
        <_>
          16 27 8 4 3.</_></rects>
      <tilted>0</tilted></_>
    <_>
      <rects>
        <_>
          16 32 21 15 -1.</_>
        <_>
          16 37 21 5 3.</_></rects>
      <tilted>0</tilted></_>
    <_>
      <rects>
        <_>
          16 35 4 3 -1.</_>
        <_>
          16 36 4 1 3.</_></rects>
      <tilted>0</tilted></_>
    <_>
      <rects>
        <_>
          17 19 9 9 -1.</_>
        <_>
          17 22 9 3 3.</_></rects>
      <tilted>0</tilted></_>
    <_>
      <rects>
        <_>
          17 27 10 11 -1.</_>
        <_>
          22 27 5 11 2.</_></rects>
      <tilted>0</tilted></_>
    <_>
      <rects>
        <_>
          17 30 21 18 -1.</_>
        <_>
          17 36 21 6 3.</_></rects>
      <tilted>0</tilted></_>
    <_>
      <rects>
        <_>
          17 35 7 6 -1.</_>
        <_>
          17 37 7 2 3.</_></rects>
      <tilted>0</tilted></_>
    <_>
      <rects>
        <_>
          17 38 9 10 -1.</_>
        <_>
          17 43 9 5 2.</_></rects>
      <tilted>0</tilted></_>
    <_>
      <rects>
        <_>
          18 25 4 10 -1.</_>
        <_>
          20 25 2 10 2.</_></rects>
      <tilted>0</tilted></_>
    <_>
      <rects>
        <_>
          18 29 16 12 -1.</_>
        <_>
          26 29 8 12 2.</_></rects>
      <tilted>0</tilted></_>
    <_>
      <rects>
        <_>
          18 29 22 18 -1.</_>
        <_>
          18 35 22 6 3.</_></rects>
      <tilted>0</tilted></_>
    <_>
      <rects>
        <_>
          18 36 7 6 -1.</_>
        <_>
          18 38 7 2 3.</_></rects>
      <tilted>0</tilted></_>
    <_>
      <rects>
        <_>
          19 5 11 39 -1.</_>
        <_>
          19 18 11 13 3.</_></rects>
      <tilted>0</tilted></_>
    <_>
      <rects>
        <_>
          19 24 19 24 -1.</_>
        <_>
          19 32 19 8 3.</_></rects>
      <tilted>0</tilted></_>
    <_>
      <rects>
        <_>
          19 26 14 14 -1.</_>
        <_>
          26 26 7 14 2.</_></rects>
      <tilted>0</tilted></_>
    <_>
      <rects>
        <_>
          19 29 6 6 -1.</_>
        <_>
          19 31 6 2 3.</_></rects>
      <tilted>0</tilted></_>
    <_>
      <rects>
        <_>
          19 31 10 8 -1.</_>
        <_>
          24 31 5 8 2.</_></rects>
      <tilted>0</tilted></_>
    <_>
      <rects>
        <_>
          19 31 14 9 -1.</_>
        <_>
          26 31 7 9 2.</_></rects>
      <tilted>0</tilted></_>
    <_>
      <rects>
        <_>
          19 37 4 6 -1.</_>
        <_>
          19 39 4 2 3.</_></rects>
      <tilted>0</tilted></_>
    <_>
      <rects>
        <_>
          20 19 6 9 -1.</_>
        <_>
          20 22 6 3 3.</_></rects>
      <tilted>0</tilted></_>
    <_>
      <rects>
        <_>
          20 25 3 7 -1.</_>
        <_>
          21 25 1 7 3.</_></rects>
      <tilted>0</tilted></_>
    <_>
      <rects>
        <_>
          20 29 4 2 -1.</_>
        <_>
          20 30 4 1 2.</_></rects>
      <tilted>0</tilted></_>
    <_>
      <rects>
        <_>
          20 29 12 18 -1.</_>
        <_>
          20 35 12 6 3.</_></rects>
      <tilted>0</tilted></_>
    <_>
      <rects>
        <_>
          20 31 5 6 -1.</_>
        <_>
          20 33 5 2 3.</_></rects>
      <tilted>0</tilted></_>
    <_>
      <rects>
        <_>
          20 37 5 8 -1.</_>
        <_>
          20 41 5 4 2.</_></rects>
      <tilted>0</tilted></_>
    <_>
      <rects>
        <_>
          21 1 12 30 -1.</_>
        <_>
          21 16 12 15 2.</_></rects>
      <tilted>0</tilted></_>
    <_>
      <rects>
        <_>
          21 26 21 2 -1.</_>
        <_>
          28 26 7 2 3.</_></rects>
      <tilted>0</tilted></_>
    <_>
      <rects>
        <_>
          21 28 4 6 -1.</_>
        <_>
          21 30 4 2 3.</_></rects>
      <tilted>0</tilted></_>
    <_>
      <rects>
        <_>
          21 34 7 3 -1.</_>
        <_>
          21 35 7 1 3.</_></rects>
      <tilted>0</tilted></_>
    <_>
      <rects>
        <_>
          21 35 6 12 -1.</_>
        <_>
          21 41 6 6 2.</_></rects>
      <tilted>0</tilted></_>
    <_>
      <rects>
        <_>
          21 35 9 6 -1.</_>
        <_>
          21 37 9 2 3.</_></rects>
      <tilted>0</tilted></_>
    <_>
      <rects>
        <_>
          21 36 6 10 -1.</_>
        <_>
          21 41 6 5 2.</_></rects>
      <tilted>0</tilted></_>
    <_>
      <rects>
        <_>
          22 25 4 8 -1.</_>
        <_>
          22 29 4 4 2.</_></rects>
      <tilted>0</tilted></_>
    <_>
      <rects>
        <_>
          22 28 7 4 -1.</_>
        <_>
          22 30 7 2 2.</_></rects>
      <tilted>0</tilted></_>
    <_>
      <rects>
        <_>
          22 35 7 6 -1.</_>
        <_>
          22 37 7 2 3.</_></rects>
      <tilted>0</tilted></_>
    <_>
      <rects>
        <_>
          24 14 24 22 -1.</_>
        <_>
          32 14 8 22 3.</_></rects>
      <tilted>0</tilted></_>
    <_>
      <rects>
        <_>
          24 29 4 12 -1.</_>
        <_>
          24 33 4 4 3.</_></rects>
      <tilted>0</tilted></_>
    <_>
      <rects>
        <_>
          24 34 4 6 -1.</_>
        <_>
          24 36 4 2 3.</_></rects>
      <tilted>0</tilted></_>
    <_>
      <rects>
        <_>
          24 34 5 12 -1.</_>
        <_>
          24 40 5 6 2.</_></rects>
      <tilted>0</tilted></_>
    <_>
      <rects>
        <_>
          24 35 4 12 -1.</_>
        <_>
          24 41 4 6 2.</_></rects>
      <tilted>0</tilted></_>
    <_>
      <rects>
        <_>
          25 12 9 8 -1.</_>
        <_>
          25 16 9 4 2.</_></rects>
      <tilted>0</tilted></_>
    <_>
      <rects>
        <_>
          25 27 15 18 -1.</_>
        <_>
          25 33 15 6 3.</_></rects>
      <tilted>0</tilted></_>
    <_>
      <rects>
        <_>
          25 32 1 6 -1.</_>
        <_>
          25 34 1 2 3.</_></rects>
      <tilted>0</tilted></_>
    <_>
      <rects>
        <_>
          25 34 2 4 -1.</_>
        <_>
          25 36 2 2 2.</_></rects>
      <tilted>0</tilted></_>
    <_>
      <rects>
        <_>
          25 35 4 12 -1.</_>
        <_>
          25 41 4 6 2.</_></rects>
      <tilted>0</tilted></_>
    <_>
      <rects>
        <_>
          25 36 5 3 -1.</_>
        <_>
          25 37 5 1 3.</_></rects>
      <tilted>0</tilted></_>
    <_>
      <rects>
        <_>
          26 1 3 6 -1.</_>
        <_>
          26 4 3 3 2.</_></rects>
      <tilted>0</tilted></_>
    <_>
      <rects>
        <_>
          26 24 12 24 -1.</_>
        <_>
          26 32 12 8 3.</_></rects>
      <tilted>0</tilted></_>
    <_>
      <rects>
        <_>
          26 25 11 21 -1.</_>
        <_>
          26 32 11 7 3.</_></rects>
      <tilted>0</tilted></_>
    <_>
      <rects>
        <_>
          26 26 4 21 -1.</_>
        <_>
          26 33 4 7 3.</_></rects>
      <tilted>0</tilted></_>
    <_>
      <rects>
        <_>
          26 26 5 21 -1.</_>
        <_>
          26 33 5 7 3.</_></rects>
      <tilted>0</tilted></_>
    <_>
      <rects>
        <_>
          26 33 22 8 -1.</_>
        <_>
          37 33 11 8 2.</_></rects>
      <tilted>0</tilted></_>
    <_>
      <rects>
        <_>
          26 34 2 6 -1.</_>
        <_>
          26 36 2 2 3.</_></rects>
      <tilted>0</tilted></_>
    <_>
      <rects>
        <_>
          26 34 5 6 -1.</_>
        <_>
          26 36 5 2 3.</_></rects>
      <tilted>0</tilted></_>
    <_>
      <rects>
        <_>
          26 34 10 14 -1.</_>
        <_>
          26 41 10 7 2.</_></rects>
      <tilted>0</tilted></_>
    <_>
      <rects>
        <_>
          26 36 5 4 -1.</_>
        <_>
          26 38 5 2 2.</_></rects>
      <tilted>0</tilted></_>
    <_>
      <rects>
        <_>
          26 36 5 12 -1.</_>
        <_>
          26 42 5 6 2.</_></rects>
      <tilted>0</tilted></_>
    <_>
      <rects>
        <_>
          27 11 9 27 -1.</_>
        <_>
          27 20 9 9 3.</_></rects>
      <tilted>0</tilted></_>
    <_>
      <rects>
        <_>
          27 21 21 23 -1.</_>
        <_>
          34 21 7 23 3.</_></rects>
      <tilted>0</tilted></_>
    <_>
      <rects>
        <_>
          27 23 6 14 -1.</_>
        <_>
          27 30 6 7 2.</_></rects>
      <tilted>0</tilted></_>
    <_>
      <rects>
        <_>
          27 31 4 6 -1.</_>
        <_>
          27 33 4 2 3.</_></rects>
      <tilted>0</tilted></_>
    <_>
      <rects>
        <_>
          27 33 1 6 -1.</_>
        <_>
          27 35 1 2 3.</_></rects>
      <tilted>0</tilted></_>
    <_>
      <rects>
        <_>
          27 34 2 8 -1.</_>
        <_>
          27 38 2 4 2.</_></rects>
      <tilted>0</tilted></_>
    <_>
      <rects>
        <_>
          27 35 11 9 -1.</_>
        <_>
          27 38 11 3 3.</_></rects>
      <tilted>0</tilted></_>
    <_>
      <rects>
        <_>
          28 36 3 4 -1.</_>
        <_>
          28 38 3 2 2.</_></rects>
      <tilted>0</tilted></_>
    <_>
      <rects>
        <_>
          28 36 3 6 -1.</_>
        <_>
          28 38 3 2 3.</_></rects>
      <tilted>0</tilted></_>
    <_>
      <rects>
        <_>
          28 36 19 2 -1.</_>
        <_>
          28 37 19 1 2.</_></rects>
      <tilted>0</tilted></_>
    <_>
      <rects>
        <_>
          29 9 3 18 -1.</_>
        <_>
          29 15 3 6 3.</_></rects>
      <tilted>0</tilted></_>
    <_>
      <rects>
        <_>
          29 12 4 27 -1.</_>
        <_>
          29 21 4 9 3.</_></rects>
      <tilted>0</tilted></_>
    <_>
      <rects>
        <_>
          29 27 4 9 -1.</_>
        <_>
          29 30 4 3 3.</_></rects>
      <tilted>0</tilted></_>
    <_>
      <rects>
        <_>
          29 34 2 14 -1.</_>
        <_>
          29 41 2 7 2.</_></rects>
      <tilted>0</tilted></_>
    <_>
      <rects>
        <_>
          29 37 14 6 -1.</_>
        <_>
          29 39 14 2 3.</_></rects>
      <tilted>0</tilted></_>
    <_>
      <rects>
        <_>
          30 16 14 26 -1.</_>
        <_>
          30 16 7 13 2.</_>
        <_>
          37 29 7 13 2.</_></rects>
      <tilted>0</tilted></_>
    <_>
      <rects>
        <_>
          30 34 2 12 -1.</_>
        <_>
          30 40 2 6 2.</_></rects>
      <tilted>0</tilted></_>
    <_>
      <rects>
        <_>
          30 35 11 9 -1.</_>
        <_>
          30 38 11 3 3.</_></rects>
      <tilted>0</tilted></_>
    <_>
      <rects>
        <_>
          31 29 2 9 -1.</_>
        <_>
          31 32 2 3 3.</_></rects>
      <tilted>0</tilted></_>
    <_>
      <rects>
        <_>
          31 38 4 3 -1.</_>
        <_>
          31 39 4 1 3.</_></rects>
      <tilted>0</tilted></_>
    <_>
      <rects>
        <_>
          32 24 5 24 -1.</_>
        <_>
          32 32 5 8 3.</_></rects>
      <tilted>0</tilted></_>
    <_>
      <rects>
        <_>
          32 32 16 16 -1.</_>
        <_>
          32 40 16 8 2.</_></rects>
      <tilted>0</tilted></_>
    <_>
      <rects>
        <_>
          32 34 4 6 -1.</_>
        <_>
          34 34 2 6 2.</_></rects>
      <tilted>0</tilted></_>
    <_>
      <rects>
        <_>
          32 38 4 3 -1.</_>
        <_>
          32 39 4 1 3.</_></rects>
      <tilted>0</tilted></_>
    <_>
      <rects>
        <_>
          32 40 5 3 -1.</_>
        <_>
          32 41 5 1 3.</_></rects>
      <tilted>0</tilted></_>
    <_>
      <rects>
        <_>
          33 24 15 1 -1.</_>
        <_>
          38 24 5 1 3.</_></rects>
      <tilted>0</tilted></_>
    <_>
      <rects>
        <_>
          34 32 6 5 -1.</_>
        <_>
          36 32 2 5 3.</_></rects>
      <tilted>0</tilted></_>
    <_>
      <rects>
        <_>
          34 34 1 14 -1.</_>
        <_>
          34 41 1 7 2.</_></rects>
      <tilted>0</tilted></_>
    <_>
      <rects>
        <_>
          34 34 3 14 -1.</_>
        <_>
          34 41 3 7 2.</_></rects>
      <tilted>0</tilted></_>
    <_>
      <rects>
        <_>
          35 25 6 1 -1.</_>
        <_>
          38 25 3 1 2.</_></rects>
      <tilted>0</tilted></_>
    <_>
      <rects>
        <_>
          35 32 7 16 -1.</_>
        <_>
          35 40 7 8 2.</_></rects>
      <tilted>0</tilted></_>
    <_>
      <rects>
        <_>
          38 18 6 3 -1.</_>
        <_>
          40 18 2 3 3.</_></rects>
      <tilted>0</tilted></_>
    <_>
      <rects>
        <_>
          38 20 6 2 -1.</_>
        <_>
          40 20 2 2 3.</_></rects>
      <tilted>0</tilted></_>
    <_>
      <rects>
        <_>
          40 22 4 1 -1.</_>
        <_>
          42 22 2 1 2.</_></rects>
      <tilted>0</tilted></_>
    <_>
      <rects>
        <_>
          41 22 4 19 -1.</_>
        <_>
          43 22 2 19 2.</_></rects>
      <tilted>0</tilted></_>
    <_>
      <rects>
        <_>
          41 22 6 1 -1.</_>
        <_>
          44 22 3 1 2.</_></rects>
      <tilted>0</tilted></_>
    <_>
      <rects>
        <_>
          41 29 4 8 -1.</_>
        <_>
          43 29 2 8 2.</_></rects>
      <tilted>0</tilted></_>
    <_>
      <rects>
        <_>
          42 23 2 6 -1.</_>
        <_>
          42 25 2 2 3.</_></rects>
      <tilted>0</tilted></_></features></cascade>
</opencv_storage>
