<?xml version="1.0"?>
<opencv_storage>
<cascade>
  <stageType>BOOST</stageType>
  <featureType>HAAR</featureType>
  <height>48</height>
  <width>48</width>
  <stageParams>
    <boostType>GAB</boostType>
    <minHitRate>9.9500000476837158e-01</minHitRate>
    <maxFalseAlarm>5.0000000000000000e-01</maxFalseAlarm>
    <weightTrimRate>9.4999999999999996e-01</weightTrimRate>
    <maxDepth>1</maxDepth>
    <maxWeakCount>100</maxWeakCount></stageParams>
  <featureParams>
    <maxCatCount>0</maxCatCount>
    <featSize>1</featSize>
    <mode>BASIC</mode></featureParams>
  <stageNum>24</stageNum>
  <stages>
    <!-- stage 0 -->
    <_>
      <maxWeakCount>7</maxWeakCount>
      <stageThreshold>-6.6622525453567505e-01</stageThreshold>
      <weakClassifiers>
        <_>
          <internalNodes>
            0 -1 264 -8.8750873692333698e-04</internalNodes>
          <leafValues>
            -6.0167711973190308e-01 7.5743067264556885e-01</leafValues></_>
        <_>
          <internalNodes>
            0 -1 180 2.6464015245437622e-03</internalNodes>
          <leafValues>
            -2.4702799320220947e-01 7.7678412199020386e-01</leafValues></_>
        <_>
          <internalNodes>
            0 -1 192 -6.4131864346563816e-03</internalNodes>
          <leafValues>
            3.6187431216239929e-01 -7.6464462280273438e-01</leafValues></_>
        <_>
          <internalNodes>
            0 -1 74 2.5903698988258839e-03</internalNodes>
          <leafValues>
            2.6853320002555847e-01 -7.1256399154663086e-01</leafValues></_>
        <_>
          <internalNodes>
            0 -1 65 3.7035897374153137e-02</internalNodes>
          <leafValues>
            -3.1839954853057861e-01 6.1277526617050171e-01</leafValues></_>
        <_>
          <internalNodes>
            0 -1 12 2.3583376780152321e-02</internalNodes>
          <leafValues>
            -2.1527162194252014e-01 6.9145721197128296e-01</leafValues></_>
        <_>
          <internalNodes>
            0 -1 16 -9.8465336486697197e-04</internalNodes>
          <leafValues>
            6.3709950447082520e-01 -2.9226711392402649e-01</leafValues></_></weakClassifiers></_>
    <!-- stage 1 -->
    <_>
      <maxWeakCount>8</maxWeakCount>
      <stageThreshold>-3.9998778700828552e-01</stageThreshold>
      <weakClassifiers>
        <_>
          <internalNodes>
            0 -1 279 4.9273972399532795e-04</internalNodes>
          <leafValues>
            7.2016298770904541e-01 -5.9643918275833130e-01</leafValues></_>
        <_>
          <internalNodes>
            0 -1 144 -2.1031340584158897e-03</internalNodes>
          <leafValues>
            6.8961632251739502e-01 -2.3239530622959137e-01</leafValues></_>
        <_>
          <internalNodes>
            0 -1 99 4.2983308434486389e-02</internalNodes>
          <leafValues>
            -1.6958579421043396e-01 7.6759386062622070e-01</leafValues></_>
        <_>
          <internalNodes>
            0 -1 93 8.0502908676862717e-03</internalNodes>
          <leafValues>
            1.9058997929096222e-01 -8.2029610872268677e-01</leafValues></_>
        <_>
          <internalNodes>
            0 -1 261 -4.3443060712888837e-04</internalNodes>
          <leafValues>
            -6.0129529237747192e-01 2.4259828031063080e-01</leafValues></_>
        <_>
          <internalNodes>
            0 -1 86 8.7765380740165710e-03</internalNodes>
          <leafValues>
            1.3321594893932343e-01 -8.3594262599945068e-01</leafValues></_>
        <_>
          <internalNodes>
            0 -1 302 -2.3511149265686981e-05</internalNodes>
          <leafValues>
            2.7926307916641235e-01 -4.3848869204521179e-01</leafValues></_>
        <_>
          <internalNodes>
            0 -1 262 4.2803707765415311e-04</internalNodes>
          <leafValues>
            1.2307336926460266e-01 -8.6810666322708130e-01</leafValues></_></weakClassifiers></_>
    <!-- stage 2 -->
    <_>
      <maxWeakCount>14</maxWeakCount>
      <stageThreshold>-5.0538033246994019e-01</stageThreshold>
      <weakClassifiers>
        <_>
          <internalNodes>
            0 -1 249 5.6324619799852371e-04</internalNodes>
          <leafValues>
            7.0536732673645020e-01 -8.3050847053527832e-01</leafValues></_>
        <_>
          <internalNodes>
            0 -1 205 -5.7371752336621284e-03</internalNodes>
          <leafValues>
            6.6496473550796509e-01 -2.4436497688293457e-01</leafValues></_>
        <_>
          <internalNodes>
            0 -1 140 8.6341053247451782e-04</internalNodes>
          <leafValues>
            -3.0472996830940247e-01 4.6065557003021240e-01</leafValues></_>
        <_>
          <internalNodes>
            0 -1 281 -3.4403399331495166e-04</internalNodes>
          <leafValues>
            -6.9207018613815308e-01 1.7323221266269684e-01</leafValues></_>
        <_>
          <internalNodes>
            0 -1 19 6.7303720861673355e-03</internalNodes>
          <leafValues>
            -1.9310380518436432e-01 6.4573287963867188e-01</leafValues></_>
        <_>
          <internalNodes>
            0 -1 42 -9.9970656447112560e-04</internalNodes>
          <leafValues>
            2.2223472595214844e-01 -4.8773089051246643e-01</leafValues></_>
        <_>
          <internalNodes>
            0 -1 246 -1.1976023670285940e-03</internalNodes>
          <leafValues>
            -6.3656699657440186e-01 2.0358572900295258e-01</leafValues></_>
        <_>
          <internalNodes>
            0 -1 320 -4.6218972420319915e-04</internalNodes>
          <leafValues>
            5.1999282836914062e-01 -2.3578406870365143e-01</leafValues></_>
        <_>
          <internalNodes>
            0 -1 110 -1.6905958764255047e-03</internalNodes>
          <leafValues>
            -6.9828236103057861e-01 1.6126631200313568e-01</leafValues></_>
        <_>
          <internalNodes>
            0 -1 145 -5.3229834884405136e-03</internalNodes>
          <leafValues>
            4.8368999361991882e-01 -2.6832583546638489e-01</leafValues></_>
        <_>
          <internalNodes>
            0 -1 179 2.5119038764387369e-03</internalNodes>
          <leafValues>
            -2.0674039423465729e-01 6.0569047927856445e-01</leafValues></_>
        <_>
          <internalNodes>
            0 -1 73 2.3034871555864811e-03</internalNodes>
          <leafValues>
            -1.5276592969894409e-01 6.6433787345886230e-01</leafValues></_>
        <_>
          <internalNodes>
            0 -1 167 3.2264334149658680e-03</internalNodes>
          <leafValues>
            1.4582894742488861e-01 -8.6675393581390381e-01</leafValues></_>
        <_>
          <internalNodes>
            0 -1 100 -5.1811039447784424e-03</internalNodes>
          <leafValues>
            4.2898896336555481e-01 -2.8323921561241150e-01</leafValues></_></weakClassifiers></_>
    <!-- stage 3 -->
    <_>
      <maxWeakCount>14</maxWeakCount>
      <stageThreshold>-5.7887339591979980e-01</stageThreshold>
      <weakClassifiers>
        <_>
          <internalNodes>
            0 -1 185 2.1268498152494431e-02</internalNodes>
          <leafValues>
            7.0765662193298340e-01 -4.7169810533523560e-01</leafValues></_>
        <_>
          <internalNodes>
            0 -1 8 9.5123667269945145e-03</internalNodes>
          <leafValues>
            -2.0586125552654266e-01 6.3898652791976929e-01</leafValues></_>
        <_>
          <internalNodes>
            0 -1 250 -9.7390460723545402e-05</internalNodes>
          <leafValues>
            -8.1402957439422607e-01 1.7748476564884186e-01</leafValues></_>
        <_>
          <internalNodes>
            0 -1 289 -6.3355555539601482e-06</internalNodes>
          <leafValues>
            2.3714973032474518e-01 -4.9374115467071533e-01</leafValues></_>
        <_>
          <internalNodes>
            0 -1 274 -4.6434290707111359e-03</internalNodes>
          <leafValues>
            4.6676224470138550e-01 -2.5642523169517517e-01</leafValues></_>
        <_>
          <internalNodes>
            0 -1 67 3.4202508628368378e-02</internalNodes>
          <leafValues>
            -1.6302533447742462e-01 6.2777346372604370e-01</leafValues></_>
        <_>
          <internalNodes>
            0 -1 166 -1.2822184944525361e-03</internalNodes>
          <leafValues>
            5.1072508096694946e-01 -2.8820195794105530e-01</leafValues></_>
        <_>
          <internalNodes>
            0 -1 263 -1.9997170602437109e-04</internalNodes>
          <leafValues>
            -7.3469215631484985e-01 1.5866217017173767e-01</leafValues></_>
        <_>
          <internalNodes>
            0 -1 142 -6.9427699781954288e-04</internalNodes>
          <leafValues>
            4.5231008529663086e-01 -2.3520858585834503e-01</leafValues></_>
        <_>
          <internalNodes>
            0 -1 57 -2.5196571368724108e-03</internalNodes>
          <leafValues>
            6.0052555799484253e-01 -1.5900197625160217e-01</leafValues></_>
        <_>
          <internalNodes>
            0 -1 321 2.9308535158634186e-04</internalNodes>
          <leafValues>
            -2.8399792313575745e-01 3.7704253196716309e-01</leafValues></_>
        <_>
          <internalNodes>
            0 -1 181 -5.0745217595249414e-04</internalNodes>
          <leafValues>
            -7.5255471467971802e-01 1.5050023794174194e-01</leafValues></_>
        <_>
          <internalNodes>
            0 -1 183 3.2421865034848452e-04</internalNodes>
          <leafValues>
            1.2923036515712738e-01 -7.6583534479141235e-01</leafValues></_>
        <_>
          <internalNodes>
            0 -1 26 6.4768083393573761e-04</internalNodes>
          <leafValues>
            -2.4599781632423401e-01 5.2174949645996094e-01</leafValues></_></weakClassifiers></_>
    <!-- stage 4 -->
    <_>
      <maxWeakCount>15</maxWeakCount>
      <stageThreshold>-2.8501638770103455e-01</stageThreshold>
      <weakClassifiers>
        <_>
          <internalNodes>
            0 -1 66 -1.7324274778366089e-01</internalNodes>
          <leafValues>
            -6.6363638639450073e-01 6.9373816251754761e-01</leafValues></_>
        <_>
          <internalNodes>
            0 -1 117 3.5414673388004303e-02</internalNodes>
          <leafValues>
            -2.2754719853401184e-01 6.0015583038330078e-01</leafValues></_>
        <_>
          <internalNodes>
            0 -1 162 6.3804246019572020e-04</internalNodes>
          <leafValues>
            -2.6594364643096924e-01 4.2360904812812805e-01</leafValues></_>
        <_>
          <internalNodes>
            0 -1 38 4.8345685936510563e-03</internalNodes>
          <leafValues>
            2.0356619358062744e-01 -5.3392565250396729e-01</leafValues></_>
        <_>
          <internalNodes>
            0 -1 146 -5.0209797918796539e-03</internalNodes>
          <leafValues>
            4.8772811889648438e-01 -2.2997489571571350e-01</leafValues></_>
        <_>
          <internalNodes>
            0 -1 80 -1.4737661927938461e-02</internalNodes>
          <leafValues>
            -5.4094415903091431e-01 1.5948511660099030e-01</leafValues></_>
        <_>
          <internalNodes>
            0 -1 68 1.4758691191673279e-02</internalNodes>
          <leafValues>
            1.2134576588869095e-01 -7.3932659626007080e-01</leafValues></_>
        <_>
          <internalNodes>
            0 -1 58 -1.0684579610824585e-03</internalNodes>
          <leafValues>
            3.5571515560150146e-01 -2.8457835316658020e-01</leafValues></_>
        <_>
          <internalNodes>
            0 -1 230 -8.7786950170993805e-03</internalNodes>
          <leafValues>
            6.5243971347808838e-01 -1.6241596639156342e-01</leafValues></_>
        <_>
          <internalNodes>
            0 -1 338 9.7068157047033310e-03</internalNodes>
          <leafValues>
            -2.0685742795467377e-01 4.5445170998573303e-01</leafValues></_>
        <_>
          <internalNodes>
            0 -1 107 1.0340374428778887e-03</internalNodes>
          <leafValues>
            -2.3041041195392609e-01 4.2467254400253296e-01</leafValues></_>
        <_>
          <internalNodes>
            0 -1 278 1.0465722880326211e-04</internalNodes>
          <leafValues>
            1.3223089277744293e-01 -7.5906300544738770e-01</leafValues></_>
        <_>
          <internalNodes>
            0 -1 322 -2.2666282020509243e-03</internalNodes>
          <leafValues>
            4.7300782799720764e-01 -2.2117799520492554e-01</leafValues></_>
        <_>
          <internalNodes>
            0 -1 15 8.9096240699291229e-03</internalNodes>
          <leafValues>
            -1.5763053297996521e-01 5.8789235353469849e-01</leafValues></_>
        <_>
          <internalNodes>
            0 -1 118 -8.4441090002655983e-03</internalNodes>
          <leafValues>
            5.4941147565841675e-01 -1.7270134389400482e-01</leafValues></_></weakClassifiers></_>
    <!-- stage 5 -->
    <_>
      <maxWeakCount>13</maxWeakCount>
      <stageThreshold>-5.4367971420288086e-01</stageThreshold>
      <weakClassifiers>
        <_>
          <internalNodes>
            0 -1 151 -5.3055991884320974e-04</internalNodes>
          <leafValues>
            -4.9387755990028381e-01 6.9227838516235352e-01</leafValues></_>
        <_>
          <internalNodes>
            0 -1 234 7.0088863139972091e-04</internalNodes>
          <leafValues>
            -2.2677984833717346e-01 5.4742312431335449e-01</leafValues></_>
        <_>
          <internalNodes>
            0 -1 14 1.2271918356418610e-02</internalNodes>
          <leafValues>
            -2.2025065124034882e-01 5.6082010269165039e-01</leafValues></_>
        <_>
          <internalNodes>
            0 -1 87 -7.0880025625228882e-02</internalNodes>
          <leafValues>
            6.2121856212615967e-01 -1.6079458594322205e-01</leafValues></_>
        <_>
          <internalNodes>
            0 -1 182 -3.7413653917610645e-03</internalNodes>
          <leafValues>
            5.0267452001571655e-01 -2.4410833418369293e-01</leafValues></_>
        <_>
          <internalNodes>
            0 -1 333 4.7722685849294066e-04</internalNodes>
          <leafValues>
            -2.7993929386138916e-01 3.9052444696426392e-01</leafValues></_>
        <_>
          <internalNodes>
            0 -1 154 1.6999356739688665e-04</internalNodes>
          <leafValues>
            2.0953324437141418e-01 -5.3889131546020508e-01</leafValues></_>
        <_>
          <internalNodes>
            0 -1 315 7.0965439081192017e-03</internalNodes>
          <leafValues>
            -2.1321107447147369e-01 4.9783405661582947e-01</leafValues></_>
        <_>
          <internalNodes>
            0 -1 324 -9.5143972430378199e-05</internalNodes>
          <leafValues>
            3.6240729689598083e-01 -2.8674536943435669e-01</leafValues></_>
        <_>
          <internalNodes>
            0 -1 311 5.0358718726783991e-04</internalNodes>
          <leafValues>
            -2.6950550079345703e-01 4.1521418094635010e-01</leafValues></_>
        <_>
          <internalNodes>
            0 -1 108 3.4096180461347103e-03</internalNodes>
          <leafValues>
            -1.5252935886383057e-01 6.0184329748153687e-01</leafValues></_>
        <_>
          <internalNodes>
            0 -1 77 -2.7390502509661019e-04</internalNodes>
          <leafValues>
            4.2752191424369812e-01 -2.9532563686370850e-01</leafValues></_>
        <_>
          <internalNodes>
            0 -1 287 -1.2458249693736434e-04</internalNodes>
          <leafValues>
            -7.8515946865081787e-01 1.2426923215389252e-01</leafValues></_></weakClassifiers></_>
    <!-- stage 6 -->
    <_>
      <maxWeakCount>10</maxWeakCount>
      <stageThreshold>-2.7489069104194641e-01</stageThreshold>
      <weakClassifiers>
        <_>
          <internalNodes>
            0 -1 39 3.7385642528533936e-02</internalNodes>
          <leafValues>
            7.0145261287689209e-01 -6.2015503644943237e-01</leafValues></_>
        <_>
          <internalNodes>
            0 -1 6 6.6218166612088680e-03</internalNodes>
          <leafValues>
            -2.0115531980991364e-01 6.8740379810333252e-01</leafValues></_>
        <_>
          <internalNodes>
            0 -1 329 1.2373276986181736e-02</internalNodes>
          <leafValues>
            -1.7106001079082489e-01 7.1599507331848145e-01</leafValues></_>
        <_>
          <internalNodes>
            0 -1 43 2.8183151036500931e-02</internalNodes>
          <leafValues>
            -1.8875183165073395e-01 7.8144758939743042e-01</leafValues></_>
        <_>
          <internalNodes>
            0 -1 270 7.5799034675583243e-05</internalNodes>
          <leafValues>
            -3.1270515918731689e-01 5.0537472963333130e-01</leafValues></_>
        <_>
          <internalNodes>
            0 -1 196 -8.0242985859513283e-03</internalNodes>
          <leafValues>
            5.8382987976074219e-01 -2.4250695109367371e-01</leafValues></_>
        <_>
          <internalNodes>
            0 -1 188 3.4461249597370625e-03</internalNodes>
          <leafValues>
            -1.9154514372348785e-01 7.1119618415832520e-01</leafValues></_>
        <_>
          <internalNodes>
            0 -1 195 -4.1044328827410936e-04</internalNodes>
          <leafValues>
            5.9164059162139893e-01 -1.9336923956871033e-01</leafValues></_>
        <_>
          <internalNodes>
            0 -1 163 2.6374474167823792e-02</internalNodes>
          <leafValues>
            1.6700501739978790e-01 -8.9848816394805908e-01</leafValues></_>
        <_>
          <internalNodes>
            0 -1 337 -6.3729854300618172e-03</internalNodes>
          <leafValues>
            6.1366230249404907e-01 -2.4882639944553375e-01</leafValues></_></weakClassifiers></_>
    <!-- stage 7 -->
    <_>
      <maxWeakCount>19</maxWeakCount>
      <stageThreshold>-5.2974146604537964e-01</stageThreshold>
      <weakClassifiers>
        <_>
          <internalNodes>
            0 -1 172 3.0523631721735001e-03</internalNodes>
          <leafValues>
            6.9900685548782349e-01 -5.9055119752883911e-01</leafValues></_>
        <_>
          <internalNodes>
            0 -1 97 5.4817937314510345e-02</internalNodes>
          <leafValues>
            -1.0433366149663925e-01 6.3930189609527588e-01</leafValues></_>
        <_>
          <internalNodes>
            0 -1 312 -3.1753173971083015e-05</internalNodes>
          <leafValues>
            3.2206812500953674e-01 -3.4332898259162903e-01</leafValues></_>
        <_>
          <internalNodes>
            0 -1 36 2.4415504187345505e-02</internalNodes>
          <leafValues>
            -1.2116469442844391e-01 7.0822167396545410e-01</leafValues></_>
        <_>
          <internalNodes>
            0 -1 307 2.0280372700653970e-04</internalNodes>
          <leafValues>
            -2.6105424761772156e-01 3.6000701785087585e-01</leafValues></_>
        <_>
          <internalNodes>
            0 -1 238 6.9745328801218420e-06</internalNodes>
          <leafValues>
            -3.4881672263145447e-01 2.4479225277900696e-01</leafValues></_>
        <_>
          <internalNodes>
            0 -1 285 7.0613209391012788e-04</internalNodes>
          <leafValues>
            9.7840644419193268e-02 -7.8163117170333862e-01</leafValues></_>
        <_>
          <internalNodes>
            0 -1 272 -3.0008526518940926e-03</internalNodes>
          <leafValues>
            1.2905949354171753e-01 -5.3161698579788208e-01</leafValues></_>
        <_>
          <internalNodes>
            0 -1 92 -2.2049972321838140e-03</internalNodes>
          <leafValues>
            2.2368785738945007e-01 -3.4816712141036987e-01</leafValues></_>
        <_>
          <internalNodes>
            0 -1 221 6.6403439268469810e-04</internalNodes>
          <leafValues>
            -2.3332332074642181e-01 3.5810744762420654e-01</leafValues></_>
        <_>
          <internalNodes>
            0 -1 194 2.6864053215831518e-03</internalNodes>
          <leafValues>
            1.1085452139377594e-01 -7.6422894001007080e-01</leafValues></_>
        <_>
          <internalNodes>
            0 -1 83 3.8356634322553873e-03</internalNodes>
          <leafValues>
            -1.8408007919788361e-01 4.5751625299453735e-01</leafValues></_>
        <_>
          <internalNodes>
            0 -1 32 -2.3121487349271774e-02</internalNodes>
          <leafValues>
            -8.1742149591445923e-01 1.0167717188596725e-01</leafValues></_>
        <_>
          <internalNodes>
            0 -1 128 6.6338095348328352e-04</internalNodes>
          <leafValues>
            -2.0355729758739471e-01 4.0606582164764404e-01</leafValues></_>
        <_>
          <internalNodes>
            0 -1 123 8.3124153316020966e-03</internalNodes>
          <leafValues>
            8.9411333203315735e-02 -9.2561686038970947e-01</leafValues></_>
        <_>
          <internalNodes>
            0 -1 253 -6.1100974562577903e-05</internalNodes>
          <leafValues>
            -7.9370707273483276e-01 7.8311011195182800e-02</leafValues></_>
        <_>
          <internalNodes>
            0 -1 82 -1.7692068358883262e-03</internalNodes>
          <leafValues>
            3.9543551206588745e-01 -2.0059885084629059e-01</leafValues></_>
        <_>
          <internalNodes>
            0 -1 284 1.9397313008084893e-04</internalNodes>
          <leafValues>
            1.2234184890985489e-01 -6.7311525344848633e-01</leafValues></_>
        <_>
          <internalNodes>
            0 -1 199 3.7157209590077400e-04</internalNodes>
          <leafValues>
            -2.7521646022796631e-01 3.7358871102333069e-01</leafValues></_></weakClassifiers></_>
    <!-- stage 8 -->
    <_>
      <maxWeakCount>9</maxWeakCount>
      <stageThreshold>-4.3235567212104797e-01</stageThreshold>
      <weakClassifiers>
        <_>
          <internalNodes>
            0 -1 222 2.4786678841337562e-04</internalNodes>
          <leafValues>
            7.3687314987182617e-01 -5.8518517017364502e-01</leafValues></_>
        <_>
          <internalNodes>
            0 -1 308 -3.8243459130171686e-05</internalNodes>
          <leafValues>
            5.4968106746673584e-01 -2.4826873838901520e-01</leafValues></_>
        <_>
          <internalNodes>
            0 -1 10 2.8292674571275711e-02</internalNodes>
          <leafValues>
            -2.1651166677474976e-01 6.7564535140991211e-01</leafValues></_>
        <_>
          <internalNodes>
            0 -1 344 1.4611036749556661e-04</internalNodes>
          <leafValues>
            -2.2265219688415527e-01 6.1217558383941650e-01</leafValues></_>
        <_>
          <internalNodes>
            0 -1 46 -6.1601446941494942e-04</internalNodes>
          <leafValues>
            4.0450191497802734e-01 -3.3263200521469116e-01</leafValues></_>
        <_>
          <internalNodes>
            0 -1 259 3.8015663158148527e-03</internalNodes>
          <leafValues>
            -2.2579112648963928e-01 5.1389175653457642e-01</leafValues></_>
        <_>
          <internalNodes>
            0 -1 52 -1.5382945537567139e-02</internalNodes>
          <leafValues>
            -8.3095091581344604e-01 1.6015551984310150e-01</leafValues></_>
        <_>
          <internalNodes>
            0 -1 23 -9.4049319159239531e-04</internalNodes>
          <leafValues>
            4.9020424485206604e-01 -2.5745639204978943e-01</leafValues></_>
        <_>
          <internalNodes>
            0 -1 79 7.5671635568141937e-04</internalNodes>
          <leafValues>
            2.2660461068153381e-01 -5.6575506925582886e-01</leafValues></_></weakClassifiers></_>
    <!-- stage 9 -->
    <_>
      <maxWeakCount>14</maxWeakCount>
      <stageThreshold>-5.2667611837387085e-01</stageThreshold>
      <weakClassifiers>
        <_>
          <internalNodes>
            0 -1 156 -1.1471259593963623e-01</internalNodes>
          <leafValues>
            -9.1907513141632080e-01 6.9005078077316284e-01</leafValues></_>
        <_>
          <internalNodes>
            0 -1 161 4.0479325689375401e-03</internalNodes>
          <leafValues>
            -1.8117335438728333e-01 6.5918457508087158e-01</leafValues></_>
        <_>
          <internalNodes>
            0 -1 133 1.9656992517411709e-03</internalNodes>
          <leafValues>
            -1.9621266424655914e-01 5.6373202800750732e-01</leafValues></_>
        <_>
          <internalNodes>
            0 -1 206 7.5848086271435022e-04</internalNodes>
          <leafValues>
            -1.3423496484756470e-01 7.2559303045272827e-01</leafValues></_>
        <_>
          <internalNodes>
            0 -1 98 -1.1109990999102592e-02</internalNodes>
          <leafValues>
            5.0482583045959473e-01 -3.3869162201881409e-01</leafValues></_>
        <_>
          <internalNodes>
            0 -1 137 2.8555616736412048e-02</internalNodes>
          <leafValues>
            -1.7955350875854492e-01 5.2303475141525269e-01</leafValues></_>
        <_>
          <internalNodes>
            0 -1 227 6.9728548623970710e-06</internalNodes>
          <leafValues>
            -3.7141200900077820e-01 2.7486693859100342e-01</leafValues></_>
        <_>
          <internalNodes>
            0 -1 283 5.9509809943847358e-05</internalNodes>
          <leafValues>
            1.2640650570392609e-01 -7.8870314359664917e-01</leafValues></_>
        <_>
          <internalNodes>
            0 -1 326 -1.4141507446765900e-02</internalNodes>
          <leafValues>
            4.7238537669181824e-01 -2.2952903807163239e-01</leafValues></_>
        <_>
          <internalNodes>
            0 -1 72 1.1296370066702366e-03</internalNodes>
          <leafValues>
            -1.7323446273803711e-01 4.8527684807777405e-01</leafValues></_>
        <_>
          <internalNodes>
            0 -1 336 2.9298546724021435e-03</internalNodes>
          <leafValues>
            -2.1353575587272644e-01 4.0502661466598511e-01</leafValues></_>
        <_>
          <internalNodes>
            0 -1 28 -2.5203298777341843e-02</internalNodes>
          <leafValues>
            4.7171041369438171e-01 -1.7798012495040894e-01</leafValues></_>
        <_>
          <internalNodes>
            0 -1 147 7.6482361182570457e-03</internalNodes>
          <leafValues>
            1.2109482288360596e-01 -8.0412364006042480e-01</leafValues></_>
        <_>
          <internalNodes>
            0 -1 90 7.2994017973542213e-03</internalNodes>
          <leafValues>
            8.5050344467163086e-02 -7.8386217355728149e-01</leafValues></_></weakClassifiers></_>
    <!-- stage 10 -->
    <_>
      <maxWeakCount>18</maxWeakCount>
      <stageThreshold>-5.1231968402862549e-01</stageThreshold>
      <weakClassifiers>
        <_>
          <internalNodes>
            0 -1 126 -1.4142008731141686e-03</internalNodes>
          <leafValues>
            -4.1046831011772156e-01 7.1367269754409790e-01</leafValues></_>
        <_>
          <internalNodes>
            0 -1 220 7.6169607928022742e-04</internalNodes>
          <leafValues>
            -2.5313442945480347e-01 4.3026632070541382e-01</leafValues></_>
        <_>
          <internalNodes>
            0 -1 277 7.6805481512565166e-06</internalNodes>
          <leafValues>
            -4.1345936059951782e-01 2.8936147689819336e-01</leafValues></_>
        <_>
          <internalNodes>
            0 -1 109 1.8743516411632299e-03</internalNodes>
          <leafValues>
            -1.9575263559818268e-01 5.0632792711257935e-01</leafValues></_>
        <_>
          <internalNodes>
            0 -1 280 -5.3029667469672859e-05</internalNodes>
          <leafValues>
            -6.4651447534561157e-01 1.5474210679531097e-01</leafValues></_>
        <_>
          <internalNodes>
            0 -1 341 1.0513281449675560e-03</internalNodes>
          <leafValues>
            -2.4127189815044403e-01 4.9162253737449646e-01</leafValues></_>
        <_>
          <internalNodes>
            0 -1 51 9.6196989761665463e-04</internalNodes>
          <leafValues>
            -1.8554571270942688e-01 4.7823655605316162e-01</leafValues></_>
        <_>
          <internalNodes>
            0 -1 254 5.3820003813598305e-05</internalNodes>
          <leafValues>
            1.3557635247707367e-01 -6.2865656614303589e-01</leafValues></_>
        <_>
          <internalNodes>
            0 -1 41 -1.6903134528547525e-03</internalNodes>
          <leafValues>
            4.3874251842498779e-01 -2.1216450631618500e-01</leafValues></_>
        <_>
          <internalNodes>
            0 -1 190 1.8971732351928949e-03</internalNodes>
          <leafValues>
            -1.9575856626033783e-01 4.4222515821456909e-01</leafValues></_>
        <_>
          <internalNodes>
            0 -1 103 7.7022979967296124e-03</internalNodes>
          <leafValues>
            1.4068007469177246e-01 -7.0846521854400635e-01</leafValues></_>
        <_>
          <internalNodes>
            0 -1 132 -1.1166306212544441e-03</internalNodes>
          <leafValues>
            5.3529578447341919e-01 -1.8330405652523041e-01</leafValues></_>
        <_>
          <internalNodes>
            0 -1 174 2.6228954084217548e-03</internalNodes>
          <leafValues>
            -1.7114160954952240e-01 5.0912302732467651e-01</leafValues></_>
        <_>
          <internalNodes>
            0 -1 296 -1.3049485278315842e-04</internalNodes>
          <leafValues>
            -6.7482221126556396e-01 1.4421579241752625e-01</leafValues></_>
        <_>
          <internalNodes>
            0 -1 136 1.8253186717629433e-03</internalNodes>
          <leafValues>
            -1.6671374440193176e-01 5.8475553989410400e-01</leafValues></_>
        <_>
          <internalNodes>
            0 -1 11 -6.9561330601572990e-03</internalNodes>
          <leafValues>
            5.1829177141189575e-01 -1.4900924265384674e-01</leafValues></_>
        <_>
          <internalNodes>
            0 -1 297 -1.2057072308380157e-04</internalNodes>
          <leafValues>
            3.0010244250297546e-01 -2.8834941983222961e-01</leafValues></_>
        <_>
          <internalNodes>
            0 -1 305 4.2356690391898155e-04</internalNodes>
          <leafValues>
            -2.7684375643730164e-01 3.6495497822761536e-01</leafValues></_></weakClassifiers></_>
    <!-- stage 11 -->
    <_>
      <maxWeakCount>15</maxWeakCount>
      <stageThreshold>-5.0135087966918945e-01</stageThreshold>
      <weakClassifiers>
        <_>
          <internalNodes>
            0 -1 60 -3.5192593932151794e-02</internalNodes>
          <leafValues>
            -5.4639172554016113e-01 7.0571261644363403e-01</leafValues></_>
        <_>
          <internalNodes>
            0 -1 0 -4.3795049190521240e-02</internalNodes>
          <leafValues>
            6.0142910480499268e-01 -1.0140755772590637e-01</leafValues></_>
        <_>
          <internalNodes>
            0 -1 251 3.5664270399138331e-04</internalNodes>
          <leafValues>
            1.5293294191360474e-01 -8.5135287046432495e-01</leafValues></_>
        <_>
          <internalNodes>
            0 -1 125 1.4315277803689241e-03</internalNodes>
          <leafValues>
            -3.0950289964675903e-01 3.2725229859352112e-01</leafValues></_>
        <_>
          <internalNodes>
            0 -1 184 2.8421632014214993e-03</internalNodes>
          <leafValues>
            1.2160158902406693e-01 -7.0390862226486206e-01</leafValues></_>
        <_>
          <internalNodes>
            0 -1 229 1.8099914304912090e-03</internalNodes>
          <leafValues>
            -1.5512266755104065e-01 5.9064400196075439e-01</leafValues></_>
        <_>
          <internalNodes>
            0 -1 304 -8.2455249503254890e-04</internalNodes>
          <leafValues>
            5.1251143217086792e-01 -2.1410329639911652e-01</leafValues></_>
        <_>
          <internalNodes>
            0 -1 139 3.6823906004428864e-02</internalNodes>
          <leafValues>
            1.3593228161334991e-01 -8.5150182247161865e-01</leafValues></_>
        <_>
          <internalNodes>
            0 -1 94 -2.1484424360096455e-03</internalNodes>
          <leafValues>
            2.2799514234066010e-01 -3.8844689726829529e-01</leafValues></_>
        <_>
          <internalNodes>
            0 -1 120 3.9032671600580215e-02</internalNodes>
          <leafValues>
            1.0014437884092331e-01 -8.8873487710952759e-01</leafValues></_>
        <_>
          <internalNodes>
            0 -1 18 1.4129769057035446e-02</internalNodes>
          <leafValues>
            -2.1517027914524078e-01 4.6733182668685913e-01</leafValues></_>
        <_>
          <internalNodes>
            0 -1 319 -3.9588278159499168e-03</internalNodes>
          <leafValues>
            4.3461486697196960e-01 -1.8859812617301941e-01</leafValues></_>
        <_>
          <internalNodes>
            0 -1 157 1.4737671881448478e-04</internalNodes>
          <leafValues>
            1.0938820242881775e-01 -8.4580898284912109e-01</leafValues></_>
        <_>
          <internalNodes>
            0 -1 62 1.4007708523422480e-03</internalNodes>
          <leafValues>
            -1.7571902275085449e-01 5.2581530809402466e-01</leafValues></_>
        <_>
          <internalNodes>
            0 -1 63 6.6337706521153450e-03</internalNodes>
          <leafValues>
            -1.4486417174339294e-01 5.9689384698867798e-01</leafValues></_></weakClassifiers></_>
    <!-- stage 12 -->
    <_>
      <maxWeakCount>15</maxWeakCount>
      <stageThreshold>-5.0216835737228394e-01</stageThreshold>
      <weakClassifiers>
        <_>
          <internalNodes>
            0 -1 295 2.4630576372146606e-03</internalNodes>
          <leafValues>
            7.0957219600677490e-01 -6.8231046199798584e-01</leafValues></_>
        <_>
          <internalNodes>
            0 -1 267 5.2172435971442610e-05</internalNodes>
          <leafValues>
            -2.4440482258796692e-01 4.8500990867614746e-01</leafValues></_>
        <_>
          <internalNodes>
            0 -1 29 -8.3363298326730728e-03</internalNodes>
          <leafValues>
            5.1872760057449341e-01 -2.3918399214744568e-01</leafValues></_>
        <_>
          <internalNodes>
            0 -1 17 -1.4123684377409518e-04</internalNodes>
          <leafValues>
            4.1241532564163208e-01 -2.0770081877708435e-01</leafValues></_>
        <_>
          <internalNodes>
            0 -1 335 -8.9050224050879478e-04</internalNodes>
          <leafValues>
            4.1859284043312073e-01 -2.1492926776409149e-01</leafValues></_>
        <_>
          <internalNodes>
            0 -1 211 -5.3914898307994008e-04</internalNodes>
          <leafValues>
            3.8227137923240662e-01 -2.2901083528995514e-01</leafValues></_>
        <_>
          <internalNodes>
            0 -1 214 -3.2237259438261390e-04</internalNodes>
          <leafValues>
            2.2382602095603943e-01 -4.2904642224311829e-01</leafValues></_>
        <_>
          <internalNodes>
            0 -1 91 -5.3232297301292419e-02</internalNodes>
          <leafValues>
            -4.3743705749511719e-01 1.9324815273284912e-01</leafValues></_>
        <_>
          <internalNodes>
            0 -1 112 1.2066652998328209e-03</internalNodes>
          <leafValues>
            -1.6818414628505707e-01 4.7292655706405640e-01</leafValues></_>
        <_>
          <internalNodes>
            0 -1 223 2.2992459125816822e-03</internalNodes>
          <leafValues>
            1.1801568418741226e-01 -7.4762850999832153e-01</leafValues></_>
        <_>
          <internalNodes>
            0 -1 164 -1.5093160327523947e-03</internalNodes>
          <leafValues>
            3.9136433601379395e-01 -2.3379288613796234e-01</leafValues></_>
        <_>
          <internalNodes>
            0 -1 13 -1.6691623022779822e-03</internalNodes>
          <leafValues>
            4.8508289456367493e-01 -1.8093355000019073e-01</leafValues></_>
        <_>
          <internalNodes>
            0 -1 299 3.1086122617125511e-03</internalNodes>
          <leafValues>
            1.1101105809211731e-01 -8.4003829956054688e-01</leafValues></_>
        <_>
          <internalNodes>
            0 -1 248 3.8603239227086306e-04</internalNodes>
          <leafValues>
            -2.9857510328292847e-01 2.7628320455551147e-01</leafValues></_>
        <_>
          <internalNodes>
            0 -1 61 5.8881589211523533e-04</internalNodes>
          <leafValues>
            -2.2787477076053619e-01 3.7143614888191223e-01</leafValues></_></weakClassifiers></_>
    <!-- stage 13 -->
    <_>
      <maxWeakCount>17</maxWeakCount>
      <stageThreshold>-6.5679401159286499e-01</stageThreshold>
      <weakClassifiers>
        <_>
          <internalNodes>
            0 -1 122 2.1101511083543301e-03</internalNodes>
          <leafValues>
            7.1439599990844727e-01 -6.2337660789489746e-01</leafValues></_>
        <_>
          <internalNodes>
            0 -1 209 -6.6768878605216742e-04</internalNodes>
          <leafValues>
            4.8356428742408752e-01 -2.6891952753067017e-01</leafValues></_>
        <_>
          <internalNodes>
            0 -1 135 1.7115885391831398e-02</internalNodes>
          <leafValues>
            -2.0570592582225800e-01 4.9632954597473145e-01</leafValues></_>
        <_>
          <internalNodes>
            0 -1 224 3.7293561035767198e-04</internalNodes>
          <leafValues>
            1.6193796694278717e-01 -6.3772952556610107e-01</leafValues></_>
        <_>
          <internalNodes>
            0 -1 115 -1.9867871887981892e-03</internalNodes>
          <leafValues>
            6.5529209375381470e-01 -1.5066054463386536e-01</leafValues></_>
        <_>
          <internalNodes>
            0 -1 204 2.4936464615166187e-03</internalNodes>
          <leafValues>
            -1.9393186271190643e-01 5.6547582149505615e-01</leafValues></_>
        <_>
          <internalNodes>
            0 -1 242 7.5327913509681821e-04</internalNodes>
          <leafValues>
            1.7544031143188477e-01 -5.9479814767837524e-01</leafValues></_>
        <_>
          <internalNodes>
            0 -1 309 3.3796922070905566e-04</internalNodes>
          <leafValues>
            -2.4963392317295074e-01 3.6833059787750244e-01</leafValues></_>
        <_>
          <internalNodes>
            0 -1 332 2.4360772222280502e-03</internalNodes>
          <leafValues>
            -1.7915219068527222e-01 4.6976199746131897e-01</leafValues></_>
        <_>
          <internalNodes>
            0 -1 30 4.7379489988088608e-03</internalNodes>
          <leafValues>
            -2.0727269351482391e-01 4.2156434059143066e-01</leafValues></_>
        <_>
          <internalNodes>
            0 -1 226 2.6368590624770150e-05</internalNodes>
          <leafValues>
            -3.5810598731040955e-01 2.6203015446662903e-01</leafValues></_>
        <_>
          <internalNodes>
            0 -1 260 1.8834399816114455e-04</internalNodes>
          <leafValues>
            1.6071951389312744e-01 -5.3900277614593506e-01</leafValues></_>
        <_>
          <internalNodes>
            0 -1 59 1.9470956176519394e-03</internalNodes>
          <leafValues>
            -2.1193264424800873e-01 4.1176325082778931e-01</leafValues></_>
        <_>
          <internalNodes>
            0 -1 181 2.8244365239515901e-04</internalNodes>
          <leafValues>
            1.6160705685615540e-01 -5.6422251462936401e-01</leafValues></_>
        <_>
          <internalNodes>
            0 -1 339 7.9573066614102572e-05</internalNodes>
          <leafValues>
            -2.7050557732582092e-01 3.1029945611953735e-01</leafValues></_>
        <_>
          <internalNodes>
            0 -1 168 2.4825735017657280e-03</internalNodes>
          <leafValues>
            -1.7555239796638489e-01 4.4771879911422729e-01</leafValues></_>
        <_>
          <internalNodes>
            0 -1 175 -1.1212017852813005e-03</internalNodes>
          <leafValues>
            5.7174336910247803e-01 -1.4032661914825439e-01</leafValues></_></weakClassifiers></_>
    <!-- stage 14 -->
    <_>
      <maxWeakCount>16</maxWeakCount>
      <stageThreshold>-3.7609085440635681e-01</stageThreshold>
      <weakClassifiers>
        <_>
          <internalNodes>
            0 -1 45 6.1793804168701172e-02</internalNodes>
          <leafValues>
            7.1554362773895264e-01 -8.5714286565780640e-01</leafValues></_>
        <_>
          <internalNodes>
            0 -1 258 5.9920194325968623e-04</internalNodes>
          <leafValues>
            3.1662967801094055e-01 -8.9252251386642456e-01</leafValues></_>
        <_>
          <internalNodes>
            0 -1 111 1.3095935806632042e-02</internalNodes>
          <leafValues>
            -2.3466511070728302e-01 7.2208321094512939e-01</leafValues></_>
        <_>
          <internalNodes>
            0 -1 236 3.8214441156014800e-04</internalNodes>
          <leafValues>
            -3.3178573846817017e-01 4.0523424744606018e-01</leafValues></_>
        <_>
          <internalNodes>
            0 -1 116 6.6999439150094986e-04</internalNodes>
          <leafValues>
            -1.9358003139495850e-01 5.6989866495132446e-01</leafValues></_>
        <_>
          <internalNodes>
            0 -1 325 3.4949467517435551e-03</internalNodes>
          <leafValues>
            -1.5999870002269745e-01 5.9456926584243774e-01</leafValues></_>
        <_>
          <internalNodes>
            0 -1 191 1.9535091705620289e-03</internalNodes>
          <leafValues>
            -1.6691447794437408e-01 5.8714604377746582e-01</leafValues></_>
        <_>
          <internalNodes>
            0 -1 3 8.5839152336120605e-02</internalNodes>
          <leafValues>
            -1.3514503836631775e-01 7.1297383308410645e-01</leafValues></_>
        <_>
          <internalNodes>
            0 -1 266 -1.8923089373856783e-04</internalNodes>
          <leafValues>
            -5.5284124612808228e-01 1.8733973801136017e-01</leafValues></_>
        <_>
          <internalNodes>
            0 -1 189 -1.4344265218824148e-03</internalNodes>
          <leafValues>
            4.9074429273605347e-01 -1.8698565661907196e-01</leafValues></_>
        <_>
          <internalNodes>
            0 -1 134 -3.1609495636075735e-04</internalNodes>
          <leafValues>
            5.2329272031784058e-01 -1.8020188808441162e-01</leafValues></_>
        <_>
          <internalNodes>
            0 -1 169 -1.1896508513018489e-03</internalNodes>
          <leafValues>
            -7.6270973682403564e-01 1.3060367107391357e-01</leafValues></_>
        <_>
          <internalNodes>
            0 -1 48 -2.3416355252265930e-03</internalNodes>
          <leafValues>
            4.7614189982414246e-01 -1.9951613247394562e-01</leafValues></_>
        <_>
          <internalNodes>
            0 -1 104 -6.5271034836769104e-03</internalNodes>
          <leafValues>
            5.5585074424743652e-01 -1.4824756979942322e-01</leafValues></_>
        <_>
          <internalNodes>
            0 -1 71 -4.7843893989920616e-03</internalNodes>
          <leafValues>
            5.7752519845962524e-01 -1.4805525541305542e-01</leafValues></_>
        <_>
          <internalNodes>
            0 -1 55 5.0405564252287149e-04</internalNodes>
          <leafValues>
            -1.8900726735591888e-01 4.3395623564720154e-01</leafValues></_></weakClassifiers></_>
    <!-- stage 15 -->
    <_>
      <maxWeakCount>17</maxWeakCount>
      <stageThreshold>-5.2731668949127197e-01</stageThreshold>
      <weakClassifiers>
        <_>
          <internalNodes>
            0 -1 301 1.3715200475417078e-04</internalNodes>
          <leafValues>
            6.9999998807907104e-01 -7.4782609939575195e-01</leafValues></_>
        <_>
          <internalNodes>
            0 -1 158 1.2932030949741602e-03</internalNodes>
          <leafValues>
            -1.0165835171937943e-01 6.2352025508880615e-01</leafValues></_>
        <_>
          <internalNodes>
            0 -1 2 6.6733248531818390e-03</internalNodes>
          <leafValues>
            -1.9470199942588806e-01 5.7430106401443481e-01</leafValues></_>
        <_>
          <internalNodes>
            0 -1 210 1.6414839774370193e-04</internalNodes>
          <leafValues>
            1.2715829908847809e-01 -7.0192599296569824e-01</leafValues></_>
        <_>
          <internalNodes>
            0 -1 33 6.3780210912227631e-03</internalNodes>
          <leafValues>
            -1.3166357576847076e-01 6.6618549823760986e-01</leafValues></_>
        <_>
          <internalNodes>
            0 -1 265 -3.8208765909075737e-04</internalNodes>
          <leafValues>
            -7.5206679105758667e-01 1.2826308608055115e-01</leafValues></_>
        <_>
          <internalNodes>
            0 -1 294 3.3892394276335835e-04</internalNodes>
          <leafValues>
            -2.3997049033641815e-01 3.5386362671852112e-01</leafValues></_>
        <_>
          <internalNodes>
            0 -1 171 7.1984520182013512e-03</internalNodes>
          <leafValues>
            -1.9947402179241180e-01 5.4830849170684814e-01</leafValues></_>
        <_>
          <internalNodes>
            0 -1 21 5.2208192646503448e-03</internalNodes>
          <leafValues>
            -2.1978743374347687e-01 4.1033667325973511e-01</leafValues></_>
        <_>
          <internalNodes>
            0 -1 150 4.4720081496052444e-04</internalNodes>
          <leafValues>
            -2.6817509531974792e-01 3.1963124871253967e-01</leafValues></_>
        <_>
          <internalNodes>
            0 -1 4 -6.0739051550626755e-03</internalNodes>
          <leafValues>
            5.3157061338424683e-01 -1.6005714237689972e-01</leafValues></_>
        <_>
          <internalNodes>
            0 -1 37 3.3950421493500471e-03</internalNodes>
          <leafValues>
            1.8948498368263245e-01 -4.6473222970962524e-01</leafValues></_>
        <_>
          <internalNodes>
            0 -1 245 1.2769357999786735e-04</internalNodes>
          <leafValues>
            1.3736033439636230e-01 -5.6351739168167114e-01</leafValues></_>
        <_>
          <internalNodes>
            0 -1 228 -8.0102363426703960e-05</internalNodes>
          <leafValues>
            -4.0459877252578735e-01 2.1292173862457275e-01</leafValues></_>
        <_>
          <internalNodes>
            0 -1 330 -7.6356995850801468e-03</internalNodes>
          <leafValues>
            6.9771862030029297e-01 -1.2708127498626709e-01</leafValues></_>
        <_>
          <internalNodes>
            0 -1 282 1.1605990119278431e-02</internalNodes>
          <leafValues>
            -2.1727709472179413e-01 4.4447365403175354e-01</leafValues></_>
        <_>
          <internalNodes>
            0 -1 268 1.2769168824888766e-04</internalNodes>
          <leafValues>
            -3.0045416951179504e-01 3.2177039980888367e-01</leafValues></_></weakClassifiers></_>
    <!-- stage 16 -->
    <_>
      <maxWeakCount>14</maxWeakCount>
      <stageThreshold>-3.5787889361381531e-01</stageThreshold>
      <weakClassifiers>
        <_>
          <internalNodes>
            0 -1 155 -2.8815914993174374e-04</internalNodes>
          <leafValues>
            -4.0999999642372131e-01 7.2180747985839844e-01</leafValues></_>
        <_>
          <internalNodes>
            0 -1 1 -1.7811518162488937e-02</internalNodes>
          <leafValues>
            6.0971403121948242e-01 -1.2818296253681183e-01</leafValues></_>
        <_>
          <internalNodes>
            0 -1 290 -1.6071414574980736e-04</internalNodes>
          <leafValues>
            -5.0034666061401367e-01 2.3405751585960388e-01</leafValues></_>
        <_>
          <internalNodes>
            0 -1 193 -2.6564713567495346e-02</internalNodes>
          <leafValues>
            6.6556078195571899e-01 -1.6938695311546326e-01</leafValues></_>
        <_>
          <internalNodes>
            0 -1 213 -8.9167077094316483e-03</internalNodes>
          <leafValues>
            3.4227955341339111e-01 -3.3359295129776001e-01</leafValues></_>
        <_>
          <internalNodes>
            0 -1 237 -7.1090093115344644e-05</internalNodes>
          <leafValues>
            -4.5104506611824036e-01 2.3376689851284027e-01</leafValues></_>
        <_>
          <internalNodes>
            0 -1 152 3.7809659261256456e-04</internalNodes>
          <leafValues>
            1.4283248782157898e-01 -6.8369233608245850e-01</leafValues></_>
        <_>
          <internalNodes>
            0 -1 49 -1.2502478202804923e-03</internalNodes>
          <leafValues>
            5.4542601108551025e-01 -2.0991472899913788e-01</leafValues></_>
        <_>
          <internalNodes>
            0 -1 76 3.0491496436297894e-03</internalNodes>
          <leafValues>
            -2.3777119815349579e-01 4.9474057555198669e-01</leafValues></_>
        <_>
          <internalNodes>
            0 -1 75 6.2747567426413298e-04</internalNodes>
          <leafValues>
            -2.3638157546520233e-01 4.7695848345756531e-01</leafValues></_>
        <_>
          <internalNodes>
            0 -1 113 9.8048266954720020e-04</internalNodes>
          <leafValues>
            -1.9440604746341705e-01 4.7760218381881714e-01</leafValues></_>
        <_>
          <internalNodes>
            0 -1 5 -3.1666718423366547e-03</internalNodes>
          <leafValues>
            -7.9152619838714600e-01 1.3964685797691345e-01</leafValues></_>
        <_>
          <internalNodes>
            0 -1 131 1.6284361481666565e-03</internalNodes>
          <leafValues>
            -1.9014160335063934e-01 5.4882544279098511e-01</leafValues></_>
        <_>
          <internalNodes>
            0 -1 197 2.8048265725374222e-02</internalNodes>
          <leafValues>
            1.3811954855918884e-01 -8.5938924551010132e-01</leafValues></_></weakClassifiers></_>
    <!-- stage 17 -->
    <_>
      <maxWeakCount>10</maxWeakCount>
      <stageThreshold>-6.6082918643951416e-01</stageThreshold>
      <weakClassifiers>
        <_>
          <internalNodes>
            0 -1 170 -2.8962388751097023e-04</internalNodes>
          <leafValues>
            -4.6333333849906921e-01 7.7464210987091064e-01</leafValues></_>
        <_>
          <internalNodes>
            0 -1 286 -3.5334413405507803e-04</internalNodes>
          <leafValues>
            5.6777077913284302e-01 -3.7118512392044067e-01</leafValues></_>
        <_>
          <internalNodes>
            0 -1 327 1.5919081633910537e-03</internalNodes>
          <leafValues>
            -2.0225065946578979e-01 6.8660634756088257e-01</leafValues></_>
        <_>
          <internalNodes>
            0 -1 138 5.2500865422189236e-04</internalNodes>
          <leafValues>
            2.7995422482490540e-01 -5.3850555419921875e-01</leafValues></_>
        <_>
          <internalNodes>
            0 -1 240 2.8758486732840538e-03</internalNodes>
          <leafValues>
            -2.3311625421047211e-01 7.5617140531539917e-01</leafValues></_>
        <_>
          <internalNodes>
            0 -1 208 -2.5781363365240395e-04</internalNodes>
          <leafValues>
            -6.1114829778671265e-01 2.4272800981998444e-01</leafValues></_>
        <_>
          <internalNodes>
            0 -1 291 -8.3244062261655927e-04</internalNodes>
          <leafValues>
            5.2934426069259644e-01 -2.5853380560874939e-01</leafValues></_>
        <_>
          <internalNodes>
            0 -1 121 4.4736280106008053e-03</internalNodes>
          <leafValues>
            2.6405945420265198e-01 -5.4211455583572388e-01</leafValues></_>
        <_>
          <internalNodes>
            0 -1 314 1.2917091371491551e-03</internalNodes>
          <leafValues>
            -2.5560563802719116e-01 6.5421032905578613e-01</leafValues></_>
        <_>
          <internalNodes>
            0 -1 317 4.5284297084435821e-04</internalNodes>
          <leafValues>
            -2.1584367752075195e-01 6.5146988630294800e-01</leafValues></_></weakClassifiers></_>
    <!-- stage 18 -->
    <_>
      <maxWeakCount>14</maxWeakCount>
      <stageThreshold>-3.7621173262596130e-01</stageThreshold>
      <weakClassifiers>
        <_>
          <internalNodes>
            0 -1 47 4.2991429567337036e-02</internalNodes>
          <leafValues>
            6.9285982847213745e-01 -8.0612242221832275e-01</leafValues></_>
        <_>
          <internalNodes>
            0 -1 306 -7.4098943514400162e-06</internalNodes>
          <leafValues>
            4.2607328295707703e-01 -2.7562245726585388e-01</leafValues></_>
        <_>
          <internalNodes>
            0 -1 129 -2.1997750736773014e-03</internalNodes>
          <leafValues>
            6.1948484182357788e-01 -1.8697699904441833e-01</leafValues></_>
        <_>
          <internalNodes>
            0 -1 96 5.7732542045414448e-03</internalNodes>
          <leafValues>
            -1.4429752528667450e-01 6.8035334348678589e-01</leafValues></_>
        <_>
          <internalNodes>
            0 -1 318 -3.2483687391504645e-05</internalNodes>
          <leafValues>
            3.2423624396324158e-01 -3.1996953487396240e-01</leafValues></_>
        <_>
          <internalNodes>
            0 -1 239 -2.2457678278442472e-04</internalNodes>
          <leafValues>
            -5.4316520690917969e-01 2.0304112136363983e-01</leafValues></_>
        <_>
          <internalNodes>
            0 -1 95 1.4202477177605033e-03</internalNodes>
          <leafValues>
            -2.4852858483791351e-01 4.4541642069816589e-01</leafValues></_>
        <_>
          <internalNodes>
            0 -1 200 -5.9826055075973272e-04</internalNodes>
          <leafValues>
            2.7407711744308472e-01 -3.6090925335884094e-01</leafValues></_>
        <_>
          <internalNodes>
            0 -1 149 1.3605027925223112e-03</internalNodes>
          <leafValues>
            -1.4136947691440582e-01 6.0051631927490234e-01</leafValues></_>
        <_>
          <internalNodes>
            0 -1 235 1.7412997782230377e-02</internalNodes>
          <leafValues>
            -1.7116522789001465e-01 5.1113903522491455e-01</leafValues></_>
        <_>
          <internalNodes>
            0 -1 331 -7.6210650149732828e-05</internalNodes>
          <leafValues>
            3.3956041932106018e-01 -2.7122855186462402e-01</leafValues></_>
        <_>
          <internalNodes>
            0 -1 81 1.1653706897050142e-03</internalNodes>
          <leafValues>
            -1.9713790714740753e-01 4.7920691967010498e-01</leafValues></_>
        <_>
          <internalNodes>
            0 -1 34 4.6979347243905067e-03</internalNodes>
          <leafValues>
            -2.4400283396244049e-01 3.5509037971496582e-01</leafValues></_>
        <_>
          <internalNodes>
            0 -1 127 -1.0088475421071053e-02</internalNodes>
          <leafValues>
            -5.4467910528182983e-01 1.6009268164634705e-01</leafValues></_></weakClassifiers></_>
    <!-- stage 19 -->
    <_>
      <maxWeakCount>20</maxWeakCount>
      <stageThreshold>-4.3900778889656067e-01</stageThreshold>
      <weakClassifiers>
        <_>
          <internalNodes>
            0 -1 275 -1.4574547111988068e-01</internalNodes>
          <leafValues>
            -8.1666666269302368e-01 6.7188084125518799e-01</leafValues></_>
        <_>
          <internalNodes>
            0 -1 106 8.5196355357766151e-03</internalNodes>
          <leafValues>
            -1.9565384089946747e-01 5.5965799093246460e-01</leafValues></_>
        <_>
          <internalNodes>
            0 -1 328 1.1587305198190734e-04</internalNodes>
          <leafValues>
            -2.2161138057708740e-01 3.5852301120758057e-01</leafValues></_>
        <_>
          <internalNodes>
            0 -1 114 6.7496369592845440e-03</internalNodes>
          <leafValues>
            -1.1939163506031036e-01 7.0440644025802612e-01</leafValues></_>
        <_>
          <internalNodes>
            0 -1 165 -1.8287489656358957e-03</internalNodes>
          <leafValues>
            5.4721689224243164e-01 -1.6490924358367920e-01</leafValues></_>
        <_>
          <internalNodes>
            0 -1 292 1.8346946453675628e-03</internalNodes>
          <leafValues>
            -1.6321589052677155e-01 3.9054083824157715e-01</leafValues></_>
        <_>
          <internalNodes>
            0 -1 130 4.2734784074127674e-03</internalNodes>
          <leafValues>
            -2.0499952137470245e-01 3.8983422517776489e-01</leafValues></_>
        <_>
          <internalNodes>
            0 -1 257 -9.0785324573516846e-05</internalNodes>
          <leafValues>
            -4.5836511254310608e-01 1.6959112882614136e-01</leafValues></_>
        <_>
          <internalNodes>
            0 -1 298 2.1554267732426524e-04</internalNodes>
          <leafValues>
            8.0412879586219788e-02 -7.8102791309356689e-01</leafValues></_>
        <_>
          <internalNodes>
            0 -1 44 4.3833136558532715e-02</internalNodes>
          <leafValues>
            7.0601433515548706e-02 -8.0663126707077026e-01</leafValues></_>
        <_>
          <internalNodes>
            0 -1 345 2.3606061004102230e-03</internalNodes>
          <leafValues>
            -2.3515458405017853e-01 3.2413217425346375e-01</leafValues></_>
        <_>
          <internalNodes>
            0 -1 25 1.5999854076653719e-03</internalNodes>
          <leafValues>
            -2.0713770389556885e-01 3.5728624463081360e-01</leafValues></_>
        <_>
          <internalNodes>
            0 -1 201 4.9282819963991642e-04</internalNodes>
          <leafValues>
            1.8773986399173737e-01 -4.5986321568489075e-01</leafValues></_>
        <_>
          <internalNodes>
            0 -1 20 -2.8917264193296432e-02</internalNodes>
          <leafValues>
            4.7684183716773987e-01 -1.7449080944061279e-01</leafValues></_>
        <_>
          <internalNodes>
            0 -1 27 2.8575975447893143e-02</internalNodes>
          <leafValues>
            1.0439467430114746e-01 -7.5570255517959595e-01</leafValues></_>
        <_>
          <internalNodes>
            0 -1 243 -1.4602803857997060e-03</internalNodes>
          <leafValues>
            -6.5709006786346436e-01 9.4903670251369476e-02</leafValues></_>
        <_>
          <internalNodes>
            0 -1 148 -4.1827035602182150e-04</internalNodes>
          <leafValues>
            5.2449065446853638e-01 -1.3795998692512512e-01</leafValues></_>
        <_>
          <internalNodes>
            0 -1 244 -4.5956494286656380e-03</internalNodes>
          <leafValues>
            4.8330572247505188e-01 -1.6819335520267487e-01</leafValues></_>
        <_>
          <internalNodes>
            0 -1 256 -4.1382774361409247e-04</internalNodes>
          <leafValues>
            -7.6926445960998535e-01 1.0602753609418869e-01</leafValues></_>
        <_>
          <internalNodes>
            0 -1 225 1.6682483255863190e-03</internalNodes>
          <leafValues>
            -2.4889431893825531e-01 3.0722376704216003e-01</leafValues></_></weakClassifiers></_>
    <!-- stage 20 -->
    <_>
      <maxWeakCount>21</maxWeakCount>
      <stageThreshold>-4.1930317878723145e-01</stageThreshold>
      <weakClassifiers>
        <_>
          <internalNodes>
            0 -1 53 -2.5045750662684441e-02</internalNodes>
          <leafValues>
            -5.6880736351013184e-01 6.8930196762084961e-01</leafValues></_>
        <_>
          <internalNodes>
            0 -1 160 -1.4282556367106736e-04</internalNodes>
          <leafValues>
            -1.0701534897089005e-01 5.2796703577041626e-01</leafValues></_>
        <_>
          <internalNodes>
            0 -1 293 5.4897170048207045e-04</internalNodes>
          <leafValues>
            -2.3522466421127319e-01 3.6750850081443787e-01</leafValues></_>
        <_>
          <internalNodes>
            0 -1 56 1.0485152900218964e-01</internalNodes>
          <leafValues>
            -1.1310098320245743e-01 6.4572548866271973e-01</leafValues></_>
        <_>
          <internalNodes>
            0 -1 105 1.4256141148507595e-03</internalNodes>
          <leafValues>
            -2.5437766313552856e-01 3.9472600817680359e-01</leafValues></_>
        <_>
          <internalNodes>
            0 -1 273 -5.7776561006903648e-03</internalNodes>
          <leafValues>
            2.5946688652038574e-01 -3.0459269881248474e-01</leafValues></_>
        <_>
          <internalNodes>
            0 -1 31 9.8525974899530411e-03</internalNodes>
          <leafValues>
            -1.4683455228805542e-01 5.2397710084915161e-01</leafValues></_>
        <_>
          <internalNodes>
            0 -1 323 4.0586024988442659e-04</internalNodes>
          <leafValues>
            -2.1911953389644623e-01 3.3756589889526367e-01</leafValues></_>
        <_>
          <internalNodes>
            0 -1 202 2.9315156862139702e-03</internalNodes>
          <leafValues>
            -1.5728290379047394e-01 4.9136069416999817e-01</leafValues></_>
        <_>
          <internalNodes>
            0 -1 203 -1.1336085153743625e-03</internalNodes>
          <leafValues>
            5.5615407228469849e-01 -1.3347099721431732e-01</leafValues></_>
        <_>
          <internalNodes>
            0 -1 153 3.0480837449431419e-03</internalNodes>
          <leafValues>
            1.1141104996204376e-01 -8.0938929319381714e-01</leafValues></_>
        <_>
          <internalNodes>
            0 -1 252 -3.1537993345409632e-04</internalNodes>
          <leafValues>
            -9.4747686386108398e-01 6.0025624930858612e-02</leafValues></_>
        <_>
          <internalNodes>
            0 -1 9 -2.9961872845888138e-02</internalNodes>
          <leafValues>
            6.5637320280075073e-01 -1.3128985464572906e-01</leafValues></_>
        <_>
          <internalNodes>
            0 -1 303 -5.3013987781014293e-05</internalNodes>
          <leafValues>
            2.5380623340606689e-01 -3.0748796463012695e-01</leafValues></_>
        <_>
          <internalNodes>
            0 -1 64 2.3011658340692520e-03</internalNodes>
          <leafValues>
            -1.7130643129348755e-01 4.0481492877006531e-01</leafValues></_>
        <_>
          <internalNodes>
            0 -1 89 9.3848435208201408e-03</internalNodes>
          <leafValues>
            1.0407360643148422e-01 -6.8062913417816162e-01</leafValues></_>
        <_>
          <internalNodes>
            0 -1 69 2.0948075689375401e-03</internalNodes>
          <leafValues>
            -1.8156620860099792e-01 3.7965318560600281e-01</leafValues></_>
        <_>
          <internalNodes>
            0 -1 288 -5.4428202565759420e-04</internalNodes>
          <leafValues>
            -4.5028409361839294e-01 1.5934544801712036e-01</leafValues></_>
        <_>
          <internalNodes>
            0 -1 300 -5.2188785048201680e-05</internalNodes>
          <leafValues>
            2.2439974546432495e-01 -2.9373958706855774e-01</leafValues></_>
        <_>
          <internalNodes>
            0 -1 212 4.2128749191761017e-02</internalNodes>
          <leafValues>
            -1.0609612613916397e-01 6.1573177576065063e-01</leafValues></_>
        <_>
          <internalNodes>
            0 -1 22 2.0891609601676464e-03</internalNodes>
          <leafValues>
            -1.5950386226177216e-01 4.1787427663803101e-01</leafValues></_></weakClassifiers></_>
    <!-- stage 21 -->
    <_>
      <maxWeakCount>18</maxWeakCount>
      <stageThreshold>-3.3299580216407776e-01</stageThreshold>
      <weakClassifiers>
        <_>
          <internalNodes>
            0 -1 102 2.7027409523725510e-02</internalNodes>
          <leafValues>
            6.7244273424148560e-01 -8.0487805604934692e-01</leafValues></_>
        <_>
          <internalNodes>
            0 -1 101 9.6303094178438187e-03</internalNodes>
          <leafValues>
            -1.3704264163970947e-01 5.5163192749023438e-01</leafValues></_>
        <_>
          <internalNodes>
            0 -1 313 -6.7016211687587202e-05</internalNodes>
          <leafValues>
            2.7577409148216248e-01 -3.7289395928382874e-01</leafValues></_>
        <_>
          <internalNodes>
            0 -1 232 -7.6471536885946989e-04</internalNodes>
          <leafValues>
            -5.7736206054687500e-01 1.4927646517753601e-01</leafValues></_>
        <_>
          <internalNodes>
            0 -1 50 4.0465599158778787e-04</internalNodes>
          <leafValues>
            -1.8241356313228607e-01 5.0488978624343872e-01</leafValues></_>
        <_>
          <internalNodes>
            0 -1 70 6.6738970577716827e-02</internalNodes>
          <leafValues>
            7.5004555284976959e-02 -8.7498885393142700e-01</leafValues></_>
        <_>
          <internalNodes>
            0 -1 217 1.0260894196107984e-03</internalNodes>
          <leafValues>
            -1.6565281152725220e-01 6.2443006038665771e-01</leafValues></_>
        <_>
          <internalNodes>
            0 -1 187 2.7722958475351334e-03</internalNodes>
          <leafValues>
            -1.6814611852169037e-01 5.3358989953994751e-01</leafValues></_>
        <_>
          <internalNodes>
            0 -1 198 3.4122854471206665e-02</internalNodes>
          <leafValues>
            1.0149439424276352e-01 -8.8757735490798950e-01</leafValues></_>
        <_>
          <internalNodes>
            0 -1 231 -3.3831733162514865e-05</internalNodes>
          <leafValues>
            3.5699695348739624e-01 -2.0699100196361542e-01</leafValues></_>
        <_>
          <internalNodes>
            0 -1 35 4.7117760404944420e-03</internalNodes>
          <leafValues>
            -2.1372793614864349e-01 3.5704749822616577e-01</leafValues></_>
        <_>
          <internalNodes>
            0 -1 78 -9.8850706126540899e-04</internalNodes>
          <leafValues>
            3.8108837604522705e-01 -2.1463802456855774e-01</leafValues></_>
        <_>
          <internalNodes>
            0 -1 343 -2.8276708908379078e-03</internalNodes>
          <leafValues>
            4.0476679801940918e-01 -1.8328452110290527e-01</leafValues></_>
        <_>
          <internalNodes>
            0 -1 334 4.1181221604347229e-04</internalNodes>
          <leafValues>
            -2.3133857548236847e-01 3.4324869513511658e-01</leafValues></_>
        <_>
          <internalNodes>
            0 -1 269 -1.9161865566275083e-05</internalNodes>
          <leafValues>
            -4.3632692098617554e-01 1.8126407265663147e-01</leafValues></_>
        <_>
          <internalNodes>
            0 -1 88 4.9206905532628298e-04</internalNodes>
          <leafValues>
            -2.3702399432659149e-01 3.7384235858917236e-01</leafValues></_>
        <_>
          <internalNodes>
            0 -1 141 1.5299594029784203e-02</internalNodes>
          <leafValues>
            9.3728229403495789e-02 -9.2546629905700684e-01</leafValues></_>
        <_>
          <internalNodes>
            0 -1 215 -2.6865498512052000e-04</internalNodes>
          <leafValues>
            -4.2652177810668945e-01 1.8977454304695129e-01</leafValues></_></weakClassifiers></_>
    <!-- stage 22 -->
    <_>
      <maxWeakCount>16</maxWeakCount>
      <stageThreshold>-5.0240403413772583e-01</stageThreshold>
      <weakClassifiers>
        <_>
          <internalNodes>
            0 -1 207 6.3434202456846833e-04</internalNodes>
          <leafValues>
            6.5836298465728760e-01 -6.3380283117294312e-01</leafValues></_>
        <_>
          <internalNodes>
            0 -1 218 8.5306353867053986e-04</internalNodes>
          <leafValues>
            -2.7471950650215149e-01 4.5533329248428345e-01</leafValues></_>
        <_>
          <internalNodes>
            0 -1 241 4.7082203673198819e-04</internalNodes>
          <leafValues>
            -1.6983434557914734e-01 6.1497598886489868e-01</leafValues></_>
        <_>
          <internalNodes>
            0 -1 177 4.6016287524253130e-04</internalNodes>
          <leafValues>
            -2.0410019159317017e-01 5.2577871084213257e-01</leafValues></_>
        <_>
          <internalNodes>
            0 -1 85 1.6180858947336674e-03</internalNodes>
          <leafValues>
            -2.1253141760826111e-01 4.9622327089309692e-01</leafValues></_>
        <_>
          <internalNodes>
            0 -1 178 -1.1085892328992486e-03</internalNodes>
          <leafValues>
            5.1050126552581787e-01 -2.1592904627323151e-01</leafValues></_>
        <_>
          <internalNodes>
            0 -1 143 5.0662364810705185e-04</internalNodes>
          <leafValues>
            -1.2594363093376160e-01 6.7359882593154907e-01</leafValues></_>
        <_>
          <internalNodes>
            0 -1 54 1.6692230710759759e-03</internalNodes>
          <leafValues>
            -1.7805559933185577e-01 6.1839824914932251e-01</leafValues></_>
        <_>
          <internalNodes>
            0 -1 24 -1.2819471885450184e-04</internalNodes>
          <leafValues>
            4.8302274942398071e-01 -2.1406167745590210e-01</leafValues></_>
        <_>
          <internalNodes>
            0 -1 255 4.4581800466403365e-05</internalNodes>
          <leafValues>
            -3.9331448078155518e-01 2.9332801699638367e-01</leafValues></_>
        <_>
          <internalNodes>
            0 -1 84 -2.6153870858252048e-03</internalNodes>
          <leafValues>
            7.3361200094223022e-01 -1.3970722258090973e-01</leafValues></_>
        <_>
          <internalNodes>
            0 -1 119 5.2910433150827885e-03</internalNodes>
          <leafValues>
            1.6408865153789520e-01 -7.0282655954360962e-01</leafValues></_>
        <_>
          <internalNodes>
            0 -1 310 -1.8978619482368231e-03</internalNodes>
          <leafValues>
            2.6836213469505310e-01 -4.1094225645065308e-01</leafValues></_>
        <_>
          <internalNodes>
            0 -1 276 4.7045495011843741e-04</internalNodes>
          <leafValues>
            -2.1118076145648956e-01 5.2652561664581299e-01</leafValues></_>
        <_>
          <internalNodes>
            0 -1 316 2.5640899548307061e-04</internalNodes>
          <leafValues>
            -1.7740628123283386e-01 6.0045987367630005e-01</leafValues></_>
        <_>
          <internalNodes>
            0 -1 233 2.0711842924356461e-02</internalNodes>
          <leafValues>
            1.4570020139217377e-01 -8.2421869039535522e-01</leafValues></_></weakClassifiers></_>
    <!-- stage 23 -->
    <_>
      <maxWeakCount>13</maxWeakCount>
      <stageThreshold>-5.3251194953918457e-01</stageThreshold>
      <weakClassifiers>
        <_>
          <internalNodes>
            0 -1 247 -2.3901751264929771e-03</internalNodes>
          <leafValues>
            -5.3276354074478149e-01 6.8915712833404541e-01</leafValues></_>
        <_>
          <internalNodes>
            0 -1 216 3.6563759204000235e-04</internalNodes>
          <leafValues>
            -1.4629793167114258e-01 7.0731800794601440e-01</leafValues></_>
        <_>
          <internalNodes>
            0 -1 7 1.0207595187239349e-04</internalNodes>
          <leafValues>
            3.9872145652770996e-01 -3.6534345149993896e-01</leafValues></_>
        <_>
          <internalNodes>
            0 -1 340 -2.8918881434947252e-04</internalNodes>
          <leafValues>
            6.6702538728713989e-01 -2.2356580197811127e-01</leafValues></_>
        <_>
          <internalNodes>
            0 -1 342 1.7866728012450039e-04</internalNodes>
          <leafValues>
            -2.9720419645309448e-01 5.7520413398742676e-01</leafValues></_>
        <_>
          <internalNodes>
            0 -1 186 -1.0664120782166719e-03</internalNodes>
          <leafValues>
            6.5584599971771240e-01 -2.2550460696220398e-01</leafValues></_>
        <_>
          <internalNodes>
            0 -1 219 2.0933430641889572e-03</internalNodes>
          <leafValues>
            -3.8432839512825012e-01 4.1283252835273743e-01</leafValues></_>
        <_>
          <internalNodes>
            0 -1 40 4.3985727825202048e-04</internalNodes>
          <leafValues>
            -1.9273318350315094e-01 7.9710465669631958e-01</leafValues></_>
        <_>
          <internalNodes>
            0 -1 173 -1.2310913298279047e-03</internalNodes>
          <leafValues>
            7.8782629966735840e-01 -1.5467000007629395e-01</leafValues></_>
        <_>
          <internalNodes>
            0 -1 176 1.7040406819432974e-03</internalNodes>
          <leafValues>
            -2.0004458725452423e-01 6.0831385850906372e-01</leafValues></_>
        <_>
          <internalNodes>
            0 -1 271 -6.0972021892666817e-03</internalNodes>
          <leafValues>
            3.0327662825584412e-01 -4.7433552145957947e-01</leafValues></_>
        <_>
          <internalNodes>
            0 -1 124 9.9792070686817169e-03</internalNodes>
          <leafValues>
            -2.0076531171798706e-01 6.9993227720260620e-01</leafValues></_>
        <_>
          <internalNodes>
            0 -1 159 1.0992747265845537e-03</internalNodes>
          <leafValues>
            -3.0839610099792480e-01 5.2620655298233032e-01</leafValues></_></weakClassifiers></_></stages>
  <features>
    <_>
      <rects>
        <_>
          0 5 32 16 -1.</_>
        <_>
          0 5 16 8 2.</_>
        <_>
          16 13 16 8 2.</_></rects>
      <tilted>0</tilted></_>
    <_>
      <rects>
        <_>
          0 9 28 10 -1.</_>
        <_>
          0 9 14 5 2.</_>
        <_>
          14 14 14 5 2.</_></rects>
      <tilted>0</tilted></_>
    <_>
      <rects>
        <_>
          0 12 24 1 -1.</_>
        <_>
          12 12 12 1 2.</_></rects>
      <tilted>0</tilted></_>
    <_>
      <rects>
        <_>
          0 16 16 32 -1.</_>
        <_>
          8 16 8 32 2.</_></rects>
      <tilted>0</tilted></_>
    <_>
      <rects>
        <_>
          0 27 14 3 -1.</_>
        <_>
          7 27 7 3 2.</_></rects>
      <tilted>0</tilted></_>
    <_>
      <rects>
        <_>
          0 33 47 3 -1.</_>
        <_>
          0 34 47 1 3.</_></rects>
      <tilted>0</tilted></_>
    <_>
      <rects>
        <_>
          1 3 20 8 -1.</_>
        <_>
          1 3 10 4 2.</_>
        <_>
          11 7 10 4 2.</_></rects>
      <tilted>0</tilted></_>
    <_>
      <rects>
        <_>
          2 18 2 5 -1.</_>
        <_>
          3 18 1 5 2.</_></rects>
      <tilted>0</tilted></_>
    <_>
      <rects>
        <_>
          3 1 26 8 -1.</_>
        <_>
          3 1 13 4 2.</_>
        <_>
          16 5 13 4 2.</_></rects>
      <tilted>0</tilted></_>
    <_>
      <rects>
        <_>
          3 13 22 10 -1.</_>
        <_>
          3 13 11 5 2.</_>
        <_>
          14 18 11 5 2.</_></rects>
      <tilted>0</tilted></_>
    <_>
      <rects>
        <_>
          4 6 14 13 -1.</_>
        <_>
          11 6 7 13 2.</_></rects>
      <tilted>0</tilted></_>
    <_>
      <rects>
        <_>
          4 8 6 22 -1.</_>
        <_>
          7 8 3 22 2.</_></rects>
      <tilted>0</tilted></_>
    <_>
      <rects>
        <_>
          4 12 10 18 -1.</_>
        <_>
          9 12 5 18 2.</_></rects>
      <tilted>0</tilted></_>
    <_>
      <rects>
        <_>
          4 35 14 4 -1.</_>
        <_>
          4 35 7 2 2.</_>
        <_>
          11 37 7 2 2.</_></rects>
      <tilted>0</tilted></_>
    <_>
      <rects>
        <_>
          5 6 16 5 -1.</_>
        <_>
          13 6 8 5 2.</_></rects>
      <tilted>0</tilted></_>
    <_>
      <rects>
        <_>
          5 16 6 10 -1.</_>
        <_>
          8 16 3 10 2.</_></rects>
      <tilted>0</tilted></_>
    <_>
      <rects>
        <_>
          5 21 6 3 -1.</_>
        <_>
          8 21 3 3 2.</_></rects>
      <tilted>0</tilted></_>
    <_>
      <rects>
        <_>
          5 26 6 1 -1.</_>
        <_>
          7 26 2 1 3.</_></rects>
      <tilted>0</tilted></_>
    <_>
      <rects>
        <_>
          6 0 10 20 -1.</_>
        <_>
          6 0 5 10 2.</_>
        <_>
          11 10 5 10 2.</_></rects>
      <tilted>0</tilted></_>
    <_>
      <rects>
        <_>
          6 5 8 12 -1.</_>
        <_>
          6 5 4 6 2.</_>
        <_>
          10 11 4 6 2.</_></rects>
      <tilted>0</tilted></_>
    <_>
      <rects>
        <_>
          6 8 32 12 -1.</_>
        <_>
          6 8 16 6 2.</_>
        <_>
          22 14 16 6 2.</_></rects>
      <tilted>0</tilted></_>
    <_>
      <rects>
        <_>
          6 16 16 12 -1.</_>
        <_>
          6 16 8 6 2.</_>
        <_>
          14 22 8 6 2.</_></rects>
      <tilted>0</tilted></_>
    <_>
      <rects>
        <_>
          7 23 6 8 -1.</_>
        <_>
          9 23 2 8 3.</_></rects>
      <tilted>0</tilted></_>
    <_>
      <rects>
        <_>
          8 6 15 1 -1.</_>
        <_>
          13 6 5 1 3.</_></rects>
      <tilted>0</tilted></_>
    <_>
      <rects>
        <_>
          8 10 6 1 -1.</_>
        <_>
          10 10 2 1 3.</_></rects>
      <tilted>0</tilted></_>
    <_>
      <rects>
        <_>
          8 16 6 9 -1.</_>
        <_>
          10 16 2 9 3.</_></rects>
      <tilted>0</tilted></_>
    <_>
      <rects>
        <_>
          8 20 2 8 -1.</_>
        <_>
          9 20 1 8 2.</_></rects>
      <tilted>0</tilted></_>
    <_>
      <rects>
        <_>
          8 27 19 14 -1.</_>
        <_>
          8 34 19 7 2.</_></rects>
      <tilted>0</tilted></_>
    <_>
      <rects>
        <_>
          9 3 22 14 -1.</_>
        <_>
          9 3 11 7 2.</_>
        <_>
          20 10 11 7 2.</_></rects>
      <tilted>0</tilted></_>
    <_>
      <rects>
        <_>
          9 6 8 18 -1.</_>
        <_>
          9 6 4 9 2.</_>
        <_>
          13 15 4 9 2.</_></rects>
      <tilted>0</tilted></_>
    <_>
      <rects>
        <_>
          9 8 14 10 -1.</_>
        <_>
          9 13 14 5 2.</_></rects>
      <tilted>0</tilted></_>
    <_>
      <rects>
        <_>
          9 11 18 12 -1.</_>
        <_>
          9 11 9 6 2.</_>
        <_>
          18 17 9 6 2.</_></rects>
      <tilted>0</tilted></_>
    <_>
      <rects>
        <_>
          9 27 24 7 -1.</_>
        <_>
          17 27 8 7 3.</_></rects>
      <tilted>0</tilted></_>
    <_>
      <rects>
        <_>
          9 28 6 9 -1.</_>
        <_>
          9 31 6 3 3.</_></rects>
      <tilted>0</tilted></_>
    <_>
      <rects>
        <_>
          10 3 14 8 -1.</_>
        <_>
          10 3 7 4 2.</_>
        <_>
          17 7 7 4 2.</_></rects>
      <tilted>0</tilted></_>
    <_>
      <rects>
        <_>
          10 3 18 8 -1.</_>
        <_>
          10 3 9 4 2.</_>
        <_>
          19 7 9 4 2.</_></rects>
      <tilted>0</tilted></_>
    <_>
      <rects>
        <_>
          10 7 7 15 -1.</_>
        <_>
          10 12 7 5 3.</_></rects>
      <tilted>0</tilted></_>
    <_>
      <rects>
        <_>
          10 16 16 16 -1.</_>
        <_>
          18 16 8 16 2.</_></rects>
      <tilted>0</tilted></_>
    <_>
      <rects>
        <_>
          10 19 16 16 -1.</_>
        <_>
          18 19 8 16 2.</_></rects>
      <tilted>0</tilted></_>
    <_>
      <rects>
        <_>
          10 23 30 7 -1.</_>
        <_>
          20 23 10 7 3.</_></rects>
      <tilted>0</tilted></_>
    <_>
      <rects>
        <_>
          10 25 1 6 -1.</_>
        <_>
          10 27 1 2 3.</_></rects>
      <tilted>0</tilted></_>
    <_>
      <rects>
        <_>
          10 25 3 9 -1.</_>
        <_>
          10 28 3 3 3.</_></rects>
      <tilted>0</tilted></_>
    <_>
      <rects>
        <_>
          10 26 18 7 -1.</_>
        <_>
          19 26 9 7 2.</_></rects>
      <tilted>0</tilted></_>
    <_>
      <rects>
        <_>
          11 3 33 4 -1.</_>
        <_>
          22 3 11 4 3.</_></rects>
      <tilted>0</tilted></_>
    <_>
      <rects>
        <_>
          11 4 27 36 -1.</_>
        <_>
          11 22 27 18 2.</_></rects>
      <tilted>0</tilted></_>
    <_>
      <rects>
        <_>
          11 5 32 9 -1.</_>
        <_>
          27 5 16 9 2.</_></rects>
      <tilted>0</tilted></_>
    <_>
      <rects>
        <_>
          11 10 8 6 -1.</_>
        <_>
          11 10 4 3 2.</_>
        <_>
          15 13 4 3 2.</_></rects>
      <tilted>0</tilted></_>
    <_>
      <rects>
        <_>
          11 12 16 27 -1.</_>
        <_>
          19 12 8 27 2.</_></rects>
      <tilted>0</tilted></_>
    <_>
      <rects>
        <_>
          11 19 4 9 -1.</_>
        <_>
          11 22 4 3 3.</_></rects>
      <tilted>0</tilted></_>
    <_>
      <rects>
        <_>
          11 23 5 6 -1.</_>
        <_>
          11 25 5 2 3.</_></rects>
      <tilted>0</tilted></_>
    <_>
      <rects>
        <_>
          11 24 1 6 -1.</_>
        <_>
          11 26 1 2 3.</_></rects>
      <tilted>0</tilted></_>
    <_>
      <rects>
        <_>
          11 26 3 6 -1.</_>
        <_>
          11 28 3 2 3.</_></rects>
      <tilted>0</tilted></_>
    <_>
      <rects>
        <_>
          11 27 10 11 -1.</_>
        <_>
          16 27 5 11 2.</_></rects>
      <tilted>0</tilted></_>
    <_>
      <rects>
        <_>
          11 28 18 13 -1.</_>
        <_>
          17 28 6 13 3.</_></rects>
      <tilted>0</tilted></_>
    <_>
      <rects>
        <_>
          11 30 2 9 -1.</_>
        <_>
          11 33 2 3 3.</_></rects>
      <tilted>0</tilted></_>
    <_>
      <rects>
        <_>
          11 35 18 2 -1.</_>
        <_>
          11 35 9 1 2.</_>
        <_>
          20 36 9 1 2.</_></rects>
      <tilted>0</tilted></_>
    <_>
      <rects>
        <_>
          12 0 11 27 -1.</_>
        <_>
          12 9 11 9 3.</_></rects>
      <tilted>0</tilted></_>
    <_>
      <rects>
        <_>
          12 4 14 4 -1.</_>
        <_>
          12 4 7 2 2.</_>
        <_>
          19 6 7 2 2.</_></rects>
      <tilted>0</tilted></_>
    <_>
      <rects>
        <_>
          12 4 7 9 -1.</_>
        <_>
          12 7 7 3 3.</_></rects>
      <tilted>0</tilted></_>
    <_>
      <rects>
        <_>
          12 10 14 6 -1.</_>
        <_>
          12 10 7 3 2.</_>
        <_>
          19 13 7 3 2.</_></rects>
      <tilted>0</tilted></_>
    <_>
      <rects>
        <_>
          12 27 22 6 -1.</_>
        <_>
          23 27 11 6 2.</_></rects>
      <tilted>0</tilted></_>
    <_>
      <rects>
        <_>
          12 28 3 6 -1.</_>
        <_>
          12 30 3 2 3.</_></rects>
      <tilted>0</tilted></_>
    <_>
      <rects>
        <_>
          12 30 3 6 -1.</_>
        <_>
          12 32 3 2 3.</_></rects>
      <tilted>0</tilted></_>
    <_>
      <rects>
        <_>
          12 32 8 9 -1.</_>
        <_>
          12 35 8 3 3.</_></rects>
      <tilted>0</tilted></_>
    <_>
      <rects>
        <_>
          12 34 16 4 -1.</_>
        <_>
          12 34 8 2 2.</_>
        <_>
          20 36 8 2 2.</_></rects>
      <tilted>0</tilted></_>
    <_>
      <rects>
        <_>
          13 1 11 21 -1.</_>
        <_>
          13 8 11 7 3.</_></rects>
      <tilted>0</tilted></_>
    <_>
      <rects>
        <_>
          13 3 22 35 -1.</_>
        <_>
          24 3 11 35 2.</_></rects>
      <tilted>0</tilted></_>
    <_>
      <rects>
        <_>
          13 4 8 18 -1.</_>
        <_>
          13 10 8 6 3.</_></rects>
      <tilted>0</tilted></_>
    <_>
      <rects>
        <_>
          13 4 14 40 -1.</_>
        <_>
          13 24 14 20 2.</_></rects>
      <tilted>0</tilted></_>
    <_>
      <rects>
        <_>
          13 9 12 8 -1.</_>
        <_>
          13 9 6 4 2.</_>
        <_>
          19 13 6 4 2.</_></rects>
      <tilted>0</tilted></_>
    <_>
      <rects>
        <_>
          13 10 27 23 -1.</_>
        <_>
          22 10 9 23 3.</_></rects>
      <tilted>0</tilted></_>
    <_>
      <rects>
        <_>
          13 22 7 9 -1.</_>
        <_>
          13 25 7 3 3.</_></rects>
      <tilted>0</tilted></_>
    <_>
      <rects>
        <_>
          13 25 5 4 -1.</_>
        <_>
          13 27 5 2 2.</_></rects>
      <tilted>0</tilted></_>
    <_>
      <rects>
        <_>
          13 28 2 9 -1.</_>
        <_>
          13 31 2 3 3.</_></rects>
      <tilted>0</tilted></_>
    <_>
      <rects>
        <_>
          13 28 24 8 -1.</_>
        <_>
          25 28 12 8 2.</_></rects>
      <tilted>0</tilted></_>
    <_>
      <rects>
        <_>
          13 29 2 6 -1.</_>
        <_>
          13 31 2 2 3.</_></rects>
      <tilted>0</tilted></_>
    <_>
      <rects>
        <_>
          13 30 5 9 -1.</_>
        <_>
          13 33 5 3 3.</_></rects>
      <tilted>0</tilted></_>
    <_>
      <rects>
        <_>
          13 36 7 2 -1.</_>
        <_>
          13 37 7 1 2.</_></rects>
      <tilted>0</tilted></_>
    <_>
      <rects>
        <_>
          14 3 6 10 -1.</_>
        <_>
          14 3 3 5 2.</_>
        <_>
          17 8 3 5 2.</_></rects>
      <tilted>0</tilted></_>
    <_>
      <rects>
        <_>
          14 6 1 30 -1.</_>
        <_>
          14 21 1 15 2.</_></rects>
      <tilted>0</tilted></_>
    <_>
      <rects>
        <_>
          14 7 15 34 -1.</_>
        <_>
          19 7 5 34 3.</_></rects>
      <tilted>0</tilted></_>
    <_>
      <rects>
        <_>
          14 26 4 6 -1.</_>
        <_>
          14 28 4 2 3.</_></rects>
      <tilted>0</tilted></_>
    <_>
      <rects>
        <_>
          14 28 12 6 -1.</_>
        <_>
          14 28 6 3 2.</_>
        <_>
          20 31 6 3 2.</_></rects>
      <tilted>0</tilted></_>
    <_>
      <rects>
        <_>
          14 31 5 9 -1.</_>
        <_>
          14 34 5 3 3.</_></rects>
      <tilted>0</tilted></_>
    <_>
      <rects>
        <_>
          14 33 14 4 -1.</_>
        <_>
          14 33 7 2 2.</_>
        <_>
          21 35 7 2 2.</_></rects>
      <tilted>0</tilted></_>
    <_>
      <rects>
        <_>
          15 3 12 2 -1.</_>
        <_>
          21 3 6 2 2.</_></rects>
      <tilted>0</tilted></_>
    <_>
      <rects>
        <_>
          15 6 3 38 -1.</_>
        <_>
          15 25 3 19 2.</_></rects>
      <tilted>0</tilted></_>
    <_>
      <rects>
        <_>
          15 7 11 30 -1.</_>
        <_>
          15 17 11 10 3.</_></rects>
      <tilted>0</tilted></_>
    <_>
      <rects>
        <_>
          15 8 2 4 -1.</_>
        <_>
          15 10 2 2 2.</_></rects>
      <tilted>0</tilted></_>
    <_>
      <rects>
        <_>
          15 10 6 38 -1.</_>
        <_>
          17 10 2 38 3.</_></rects>
      <tilted>0</tilted></_>
    <_>
      <rects>
        <_>
          15 11 6 20 -1.</_>
        <_>
          17 11 2 20 3.</_></rects>
      <tilted>0</tilted></_>
    <_>
      <rects>
        <_>
          15 16 26 17 -1.</_>
        <_>
          28 16 13 17 2.</_></rects>
      <tilted>0</tilted></_>
    <_>
      <rects>
        <_>
          15 26 12 5 -1.</_>
        <_>
          21 26 6 5 2.</_></rects>
      <tilted>0</tilted></_>
    <_>
      <rects>
        <_>
          15 26 14 13 -1.</_>
        <_>
          22 26 7 13 2.</_></rects>
      <tilted>0</tilted></_>
    <_>
      <rects>
        <_>
          15 27 16 3 -1.</_>
        <_>
          23 27 8 3 2.</_></rects>
      <tilted>0</tilted></_>
    <_>
      <rects>
        <_>
          15 30 8 6 -1.</_>
        <_>
          15 32 8 2 3.</_></rects>
      <tilted>0</tilted></_>
    <_>
      <rects>
        <_>
          15 32 5 9 -1.</_>
        <_>
          15 35 5 3 3.</_></rects>
      <tilted>0</tilted></_>
    <_>
      <rects>
        <_>
          16 0 11 21 -1.</_>
        <_>
          16 7 11 7 3.</_></rects>
      <tilted>0</tilted></_>
    <_>
      <rects>
        <_>
          16 0 20 9 -1.</_>
        <_>
          16 3 20 3 3.</_></rects>
      <tilted>0</tilted></_>
    <_>
      <rects>
        <_>
          16 1 7 21 -1.</_>
        <_>
          16 8 7 7 3.</_></rects>
      <tilted>0</tilted></_>
    <_>
      <rects>
        <_>
          16 1 9 12 -1.</_>
        <_>
          16 5 9 4 3.</_></rects>
      <tilted>0</tilted></_>
    <_>
      <rects>
        <_>
          16 2 8 8 -1.</_>
        <_>
          16 6 8 4 2.</_></rects>
      <tilted>0</tilted></_>
    <_>
      <rects>
        <_>
          16 3 15 24 -1.</_>
        <_>
          16 15 15 12 2.</_></rects>
      <tilted>0</tilted></_>
    <_>
      <rects>
        <_>
          16 7 3 38 -1.</_>
        <_>
          16 26 3 19 2.</_></rects>
      <tilted>0</tilted></_>
    <_>
      <rects>
        <_>
          16 9 9 9 -1.</_>
        <_>
          16 12 9 3 3.</_></rects>
      <tilted>0</tilted></_>
    <_>
      <rects>
        <_>
          16 13 5 21 -1.</_>
        <_>
          16 20 5 7 3.</_></rects>
      <tilted>0</tilted></_>
    <_>
      <rects>
        <_>
          16 16 9 22 -1.</_>
        <_>
          16 27 9 11 2.</_></rects>
      <tilted>0</tilted></_>
    <_>
      <rects>
        <_>
          16 26 6 6 -1.</_>
        <_>
          16 28 6 2 3.</_></rects>
      <tilted>0</tilted></_>
    <_>
      <rects>
        <_>
          16 34 4 9 -1.</_>
        <_>
          16 37 4 3 3.</_></rects>
      <tilted>0</tilted></_>
    <_>
      <rects>
        <_>
          16 41 14 4 -1.</_>
        <_>
          16 41 7 2 2.</_>
        <_>
          23 43 7 2 2.</_></rects>
      <tilted>0</tilted></_>
    <_>
      <rects>
        <_>
          17 2 3 40 -1.</_>
        <_>
          18 2 1 40 3.</_></rects>
      <tilted>0</tilted></_>
    <_>
      <rects>
        <_>
          17 3 2 18 -1.</_>
        <_>
          17 9 2 6 3.</_></rects>
      <tilted>0</tilted></_>
    <_>
      <rects>
        <_>
          17 12 4 14 -1.</_>
        <_>
          17 19 4 7 2.</_></rects>
      <tilted>0</tilted></_>
    <_>
      <rects>
        <_>
          17 34 3 6 -1.</_>
        <_>
          17 36 3 2 3.</_></rects>
      <tilted>0</tilted></_>
    <_>
      <rects>
        <_>
          17 36 5 9 -1.</_>
        <_>
          17 39 5 3 3.</_></rects>
      <tilted>0</tilted></_>
    <_>
      <rects>
        <_>
          17 37 10 4 -1.</_>
        <_>
          17 37 5 2 2.</_>
        <_>
          22 39 5 2 2.</_></rects>
      <tilted>0</tilted></_>
    <_>
      <rects>
        <_>
          17 43 14 2 -1.</_>
        <_>
          17 43 7 1 2.</_>
        <_>
          24 44 7 1 2.</_></rects>
      <tilted>0</tilted></_>
    <_>
      <rects>
        <_>
          18 0 17 18 -1.</_>
        <_>
          18 6 17 6 3.</_></rects>
      <tilted>0</tilted></_>
    <_>
      <rects>
        <_>
          18 0 18 6 -1.</_>
        <_>
          18 3 18 3 2.</_></rects>
      <tilted>0</tilted></_>
    <_>
      <rects>
        <_>
          18 1 6 22 -1.</_>
        <_>
          20 1 2 22 3.</_></rects>
      <tilted>0</tilted></_>
    <_>
      <rects>
        <_>
          18 1 15 26 -1.</_>
        <_>
          18 14 15 13 2.</_></rects>
      <tilted>0</tilted></_>
    <_>
      <rects>
        <_>
          18 2 8 16 -1.</_>
        <_>
          22 2 4 16 2.</_></rects>
      <tilted>0</tilted></_>
    <_>
      <rects>
        <_>
          18 7 3 23 -1.</_>
        <_>
          19 7 1 23 3.</_></rects>
      <tilted>0</tilted></_>
    <_>
      <rects>
        <_>
          18 7 2 34 -1.</_>
        <_>
          18 24 2 17 2.</_></rects>
      <tilted>0</tilted></_>
    <_>
      <rects>
        <_>
          18 7 4 15 -1.</_>
        <_>
          18 12 4 5 3.</_></rects>
      <tilted>0</tilted></_>
    <_>
      <rects>
        <_>
          18 20 5 8 -1.</_>
        <_>
          18 24 5 4 2.</_></rects>
      <tilted>0</tilted></_>
    <_>
      <rects>
        <_>
          18 23 3 18 -1.</_>
        <_>
          19 23 1 18 3.</_></rects>
      <tilted>0</tilted></_>
    <_>
      <rects>
        <_>
          18 27 14 5 -1.</_>
        <_>
          25 27 7 5 2.</_></rects>
      <tilted>0</tilted></_>
    <_>
      <rects>
        <_>
          18 35 2 6 -1.</_>
        <_>
          18 37 2 2 3.</_></rects>
      <tilted>0</tilted></_>
    <_>
      <rects>
        <_>
          18 35 14 4 -1.</_>
        <_>
          18 35 7 2 2.</_>
        <_>
          25 37 7 2 2.</_></rects>
      <tilted>0</tilted></_>
    <_>
      <rects>
        <_>
          18 36 12 8 -1.</_>
        <_>
          18 36 6 4 2.</_>
        <_>
          24 40 6 4 2.</_></rects>
      <tilted>0</tilted></_>
    <_>
      <rects>
        <_>
          18 37 4 6 -1.</_>
        <_>
          18 39 4 2 3.</_></rects>
      <tilted>0</tilted></_>
    <_>
      <rects>
        <_>
          18 40 8 4 -1.</_>
        <_>
          18 40 4 2 2.</_>
        <_>
          22 42 4 2 2.</_></rects>
      <tilted>0</tilted></_>
    <_>
      <rects>
        <_>
          18 40 16 4 -1.</_>
        <_>
          18 40 8 2 2.</_>
        <_>
          26 42 8 2 2.</_></rects>
      <tilted>0</tilted></_>
    <_>
      <rects>
        <_>
          18 42 5 3 -1.</_>
        <_>
          18 43 5 1 3.</_></rects>
      <tilted>0</tilted></_>
    <_>
      <rects>
        <_>
          19 1 4 18 -1.</_>
        <_>
          19 7 4 6 3.</_></rects>
      <tilted>0</tilted></_>
    <_>
      <rects>
        <_>
          19 3 10 2 -1.</_>
        <_>
          19 4 10 1 2.</_></rects>
      <tilted>0</tilted></_>
    <_>
      <rects>
        <_>
          19 6 15 18 -1.</_>
        <_>
          19 12 15 6 3.</_></rects>
      <tilted>0</tilted></_>
    <_>
      <rects>
        <_>
          19 7 3 16 -1.</_>
        <_>
          20 7 1 16 3.</_></rects>
      <tilted>0</tilted></_>
    <_>
      <rects>
        <_>
          19 19 9 24 -1.</_>
        <_>
          19 27 9 8 3.</_></rects>
      <tilted>0</tilted></_>
    <_>
      <rects>
        <_>
          19 21 2 8 -1.</_>
        <_>
          19 25 2 4 2.</_></rects>
      <tilted>0</tilted></_>
    <_>
      <rects>
        <_>
          19 25 18 6 -1.</_>
        <_>
          25 25 6 6 3.</_></rects>
      <tilted>0</tilted></_>
    <_>
      <rects>
        <_>
          19 42 4 6 -1.</_>
        <_>
          19 44 4 2 3.</_></rects>
      <tilted>0</tilted></_>
    <_>
      <rects>
        <_>
          19 44 5 3 -1.</_>
        <_>
          19 45 5 1 3.</_></rects>
      <tilted>0</tilted></_>
    <_>
      <rects>
        <_>
          20 0 9 6 -1.</_>
        <_>
          20 2 9 2 3.</_></rects>
      <tilted>0</tilted></_>
    <_>
      <rects>
        <_>
          20 0 9 9 -1.</_>
        <_>
          20 3 9 3 3.</_></rects>
      <tilted>0</tilted></_>
    <_>
      <rects>
        <_>
          20 0 11 6 -1.</_>
        <_>
          20 2 11 2 3.</_></rects>
      <tilted>0</tilted></_>
    <_>
      <rects>
        <_>
          20 3 6 24 -1.</_>
        <_>
          22 3 2 24 3.</_></rects>
      <tilted>0</tilted></_>
    <_>
      <rects>
        <_>
          20 3 5 2 -1.</_>
        <_>
          20 4 5 1 2.</_></rects>
      <tilted>0</tilted></_>
    <_>
      <rects>
        <_>
          20 3 6 2 -1.</_>
        <_>
          20 4 6 1 2.</_></rects>
      <tilted>0</tilted></_>
    <_>
      <rects>
        <_>
          20 4 8 2 -1.</_>
        <_>
          20 5 8 1 2.</_></rects>
      <tilted>0</tilted></_>
    <_>
      <rects>
        <_>
          20 7 3 6 -1.</_>
        <_>
          21 7 1 6 3.</_></rects>
      <tilted>0</tilted></_>
    <_>
      <rects>
        <_>
          20 7 2 7 -1.</_>
        <_>
          21 7 1 7 2.</_></rects>
      <tilted>0</tilted></_>
    <_>
      <rects>
        <_>
          20 7 6 9 -1.</_>
        <_>
          23 7 3 9 2.</_></rects>
      <tilted>0</tilted></_>
    <_>
      <rects>
        <_>
          20 8 3 6 -1.</_>
        <_>
          21 8 1 6 3.</_></rects>
      <tilted>0</tilted></_>
    <_>
      <rects>
        <_>
          20 9 3 4 -1.</_>
        <_>
          21 9 1 4 3.</_></rects>
      <tilted>0</tilted></_>
    <_>
      <rects>
        <_>
          20 10 14 38 -1.</_>
        <_>
          27 10 7 38 2.</_></rects>
      <tilted>0</tilted></_>
    <_>
      <rects>
        <_>
          20 12 3 1 -1.</_>
        <_>
          21 12 1 1 3.</_></rects>
      <tilted>0</tilted></_>
    <_>
      <rects>
        <_>
          20 14 1 22 -1.</_>
        <_>
          20 25 1 11 2.</_></rects>
      <tilted>0</tilted></_>
    <_>
      <rects>
        <_>
          20 16 8 18 -1.</_>
        <_>
          20 22 8 6 3.</_></rects>
      <tilted>0</tilted></_>
    <_>
      <rects>
        <_>
          20 18 12 6 -1.</_>
        <_>
          26 18 6 6 2.</_></rects>
      <tilted>0</tilted></_>
    <_>
      <rects>
        <_>
          20 18 12 10 -1.</_>
        <_>
          20 23 12 5 2.</_></rects>
      <tilted>0</tilted></_>
    <_>
      <rects>
        <_>
          20 20 2 8 -1.</_>
        <_>
          20 24 2 4 2.</_></rects>
      <tilted>0</tilted></_>
    <_>
      <rects>
        <_>
          20 20 10 18 -1.</_>
        <_>
          20 26 10 6 3.</_></rects>
      <tilted>0</tilted></_>
    <_>
      <rects>
        <_>
          20 33 14 6 -1.</_>
        <_>
          20 33 7 3 2.</_>
        <_>
          27 36 7 3 2.</_></rects>
      <tilted>0</tilted></_>
    <_>
      <rects>
        <_>
          20 39 10 4 -1.</_>
        <_>
          20 39 5 2 2.</_>
        <_>
          25 41 5 2 2.</_></rects>
      <tilted>0</tilted></_>
    <_>
      <rects>
        <_>
          21 0 6 4 -1.</_>
        <_>
          21 2 6 2 2.</_></rects>
      <tilted>0</tilted></_>
    <_>
      <rects>
        <_>
          21 3 1 40 -1.</_>
        <_>
          21 23 1 20 2.</_></rects>
      <tilted>0</tilted></_>
    <_>
      <rects>
        <_>
          21 3 21 2 -1.</_>
        <_>
          28 3 7 2 3.</_></rects>
      <tilted>0</tilted></_>
    <_>
      <rects>
        <_>
          21 5 6 3 -1.</_>
        <_>
          23 5 2 3 3.</_></rects>
      <tilted>0</tilted></_>
    <_>
      <rects>
        <_>
          21 7 3 4 -1.</_>
        <_>
          22 7 1 4 3.</_></rects>
      <tilted>0</tilted></_>
    <_>
      <rects>
        <_>
          21 8 3 15 -1.</_>
        <_>
          21 13 3 5 3.</_></rects>
      <tilted>0</tilted></_>
    <_>
      <rects>
        <_>
          21 30 16 2 -1.</_>
        <_>
          29 30 8 2 2.</_></rects>
      <tilted>0</tilted></_>
    <_>
      <rects>
        <_>
          21 33 5 6 -1.</_>
        <_>
          21 35 5 2 3.</_></rects>
      <tilted>0</tilted></_>
    <_>
      <rects>
        <_>
          21 36 12 6 -1.</_>
        <_>
          21 36 6 3 2.</_>
        <_>
          27 39 6 3 2.</_></rects>
      <tilted>0</tilted></_>
    <_>
      <rects>
        <_>
          21 38 10 4 -1.</_>
        <_>
          21 38 5 2 2.</_>
        <_>
          26 40 5 2 2.</_></rects>
      <tilted>0</tilted></_>
    <_>
      <rects>
        <_>
          21 39 13 6 -1.</_>
        <_>
          21 41 13 2 3.</_></rects>
      <tilted>0</tilted></_>
    <_>
      <rects>
        <_>
          21 43 8 4 -1.</_>
        <_>
          21 43 4 2 2.</_>
        <_>
          25 45 4 2 2.</_></rects>
      <tilted>0</tilted></_>
    <_>
      <rects>
        <_>
          22 0 2 6 -1.</_>
        <_>
          22 3 2 3 2.</_></rects>
      <tilted>0</tilted></_>
    <_>
      <rects>
        <_>
          22 1 7 4 -1.</_>
        <_>
          22 3 7 2 2.</_></rects>
      <tilted>0</tilted></_>
    <_>
      <rects>
        <_>
          22 2 6 6 -1.</_>
        <_>
          22 5 6 3 2.</_></rects>
      <tilted>0</tilted></_>
    <_>
      <rects>
        <_>
          22 6 3 7 -1.</_>
        <_>
          23 6 1 7 3.</_></rects>
      <tilted>0</tilted></_>
    <_>
      <rects>
        <_>
          22 6 7 9 -1.</_>
        <_>
          22 9 7 3 3.</_></rects>
      <tilted>0</tilted></_>
    <_>
      <rects>
        <_>
          22 7 3 5 -1.</_>
